158 193 -0.00417276414596
87 229 -0.0841335804722
111 227 -0.104187625473
214 232 0.208068834515
76 201 0.0573133331769
167 226 -0.00197281906968
5 195 -0.169666175425
171 231 0.127280886619
100 199 0.00784754218283
29 221 0.00287444862816
124 221 -0.0898095709142
53 215 0.0635867687922
132 218 -0.0940381912654
156 192 0.104993476881
85 230 -0.00489522127229
89 227 -0.100585053049
180 206 -0.00770719687928
18 225 0.00527328015139
19 200 0.0605962319519
38 228 -0.427928290435
145 226 0.0079129725654
169 228 0.333182752327
98 194 -0.0957559573641
27 194 0.000264443467813
122 204 0.012650155362
51 200 -0.191923337244
146 204 -0.0878699006993
40 230 -0.103138284666
155 215 -0.0594261543193
179 221 -0.0988446651053
17 202 -0.136175532324
112 200 -0.187283593235
41 220 -0.163766815234
207 235 -0.0476156474889
144 211 0.00393407197222
2 209 -0.0531084251463
168 217 0.126736352296
97 213 -0.00876378334281
23 197 0.0578375048359
26 219 -0.0960264644424
121 223 0.0495333554323
50 229 -0.0449279175793
70 224 -0.0905726667282
150 200 0.069484164328
153 212 0.171537410871
102 209 -0.117348415213
174 194 -0.10411739705
31 223 -0.0963562234848
126 219 -0.0987197369219
55 197 -0.00867010453694
79 195 -0.0998528222588
182 200 -0.490208308732
21 198 -0.0945366045266
135 194 -0.00349979553777
68 231 0.0648480474679
159 200 -0.0524918135654
72 226 -0.0904825469009
183 214 0.0191505489986
45 209 -0.00194505007087
77 192 -0.191874579265
149 211 -0.0270205825427
6 196 0.0020271314882
172 212 0.166140773115
101 202 0.0106511065274
11 222 -0.158409160292
30 206 -0.00611633842227
125 212 0.353816337249
54 208 -0.0956398989225
78 218 -0.0850403484495
138 215 0.0886570612847
157 217 -0.222787547801
181 211 -0.123787705675
20 215 0.0909232562561
114 214 -0.0928794545674
43 222 -0.0734517745678
209 234 0.196998427264
67 212 -0.158685914449
91 202 0.00815389132343
147 204 -0.101703125183
170 215 -0.116922243973
9 211 -0.00871301609884
123 221 0.00508760718448
52 215 0.0588480221641
171 195 -0.00320770764355
124 225 0.0464026894522
137 192 -0.0694121394105
15 227 0.000180398538313
18 197 -0.0920255635792
19 228 -0.337541400221
113 193 -0.127364578066
42 207 0.0466275271139
66 217 -0.308529590775
142 226 -0.102839752197
145 206 -0.0969463694547
169 192 -0.357438698858
98 230 -0.00450004177093
8 194 0.00269720889454
122 224 -0.109671940607
32 216 0.296857442497
71 217 0.927850751087
95 215 -0.0564446978388
151 193 -0.0418082874194
175 207 -0.125035933155
178 225 0.103568493763
127 198 0.00354686159216
202 235 0.0466876312043
40 194 -0.10221891691
64 216 -0.0354844299867
88 206 -0.000849320468895
22 193 -0.139428806884
46 203 -0.0847594646264
141 205 -0.00951327063852
70 204 -0.107320011394
150 212 0.0932465898363
173 205 0.00158465736975
174 222 -0.0994495686231
12 205 0.000882939845416
36 219 -0.00314411400054
139 210 -0.114194851569
163 216 -0.183156317208
182 212 0.0682865241963
21 218 -0.0775479096008
187 206 -0.000225711522645
44 205 -0.00731142974213
68 219 -0.0931993774852
92 193 -0.16561120447
148 211 0.00153612322361
116 207 0.108767803483
10 220 -0.117615584926
34 198 -0.103223800558
58 192 -0.072506435591
77 228 0.0491696544432
81 225 -0.123965558368
161 201 -0.448499646935
185 195 -0.0832114767813
138 203 -0.098371644002
90 192 -0.0499463869107
162 213 -0.0783568030921
91 214 0.127527374229
167 213 -0.143367078807
170 203 -0.00464341594507
9 207 -0.119412397082
191 211 0.0482614137815
33 209 -0.101187787713
57 219 -0.101535005523
80 212 0.0959319368073
136 198 -0.108178639856
104 218 0.00499722721936
160 220 0.355380873237
184 210 -0.00679064664255
38 221 -0.126014127333
133 231 -0.0287031547168
62 215 0.0517797691218
65 209 -0.0949681332563
86 201 -0.10554943176
89 219 0.00499556716661
15 199 0.146911558078
165 214 0.0316944354526
47 214 0.292452852462
94 215 -0.0145870028987
166 192 0.00978378291645
118 201 -0.289533752251
28 225 -0.0169896362722
32 228 -0.129414489918
95 203 0.00449487388029
151 229 0.010953960129
175 227 -0.10868315657
13 196 -0.00398127321442
179 228 0.587761686711
37 206 -0.109350670076
61 216 -0.0301670466513
140 201 -0.463200917106
108 213 -0.00636627194837
164 199 0.67920455391
2 230 -0.108244267276
188 221 -0.0017943520088
26 224 -0.00767834400265
46 231 0.0338566580261
50 218 0.00958690788034
69 206 -0.0021671188324
74 212 0.431825025383
93 216 0.0388036526939
3 208 -0.000768619384568
153 227 -0.105579869533
117 210 -0.0141883549868
35 195 -0.141412386537
59 217 0.0191357054825
82 218 0.00497888097009
83 207 -0.0955458055063
106 212 0.101040362919
186 204 -0.108033200293
115 207 0.0885614603179
49 205 -0.102714922218
176 200 -0.199151973487
129 198 0.00131831453315
58 228 0.126181591326
78 227 -0.0939297600946
81 205 -0.00928078704607
7 221 -0.109914065949
11 230 -0.00166771089427
105 199 -0.0507251076106
161 213 0.000121082542357
185 223 -0.181854726182
39 204 -0.103989794059
134 224 -0.105931364101
63 218 -0.0835719355467
87 192 -0.195612958818
0 196 0.0012741961892
111 206 -0.10358400024
24 202 -0.0981135555641
190 219 -0.10386867693
143 195 -0.0576944096237
56 219 -0.104710293955
119 192 0.111501396706
132 231 -0.0474459186762
136 226 -0.00243601327796
85 193 -0.00219288954916
14 199 -0.434451211931
133 219 -0.00917600435481
86 213 -0.161000135796
15 219 0.00328785617235
109 204 -0.105241936699
165 202 -0.10499569738
189 212 0.0771741223391
142 218 -0.0841567613295
75 213 -0.0828893834717
4 223 -0.0876143532583
99 219 0.00627313286205
118 213 0.0269532444993
28 197 -0.0932802990136
178 214 -0.187627712337
131 212 0.198266856697
60 214 -0.0779773142254
155 202 -0.112599444226
84 220 0.105012850736
107 213 0.0073406899434
179 192 -0.353376448131
37 226 -0.0103280879535
41 231 -0.0220721009243
73 214 -0.109011495795
2 202 -0.138701119113
97 200 -0.0405142738679
188 225 0.254397379096
26 196 -0.07573585494
121 194 -0.100532637585
74 200 0.452336502188
3 204 -0.103058693337
177 193 -0.0963665238665
55 224 -0.00320660928624
130 217 -0.250205657155
59 229 -0.00831080449427
154 211 -0.0230188462514
103 212 -0.030704250084
106 200 0.0433464009659
16 208 -0.100123354343
186 224 -0.00430907636138
135 217 0.139476291414
48 193 0.0181591074487
159 215 0.0391072937636
72 199 0.0791796695626
1 221 -0.106680091921
183 205 -0.00755133810846
96 221 -0.0987230367653
25 215 -0.00670764720299
120 211 0.012519462644
128 216 -0.0377665511971
77 219 -0.099381851869
152 206 0.00021008333864
6 217 0.0921958228765
101 213 0.0183054483064
30 211 -0.0243909570846
125 207 -0.0261895497626
7 193 -0.0173851673907
110 204 -0.00549426839511
134 204 -0.105991930438
158 198 -0.0250856662653
87 228 -0.0776584661453
91 225 -0.108423042161
111 226 -0.103226087805
194 234 0.0914371736518
214 233 0.467694445566
76 202 -0.0855432277506
5 194 0.00418069127491
171 230 -0.00751009128743
100 192 -0.0750808133941
29 220 -0.465401824055
124 222 0.0190016183508
53 214 -0.0489471847847
132 219 -0.00352487675651
156 193 -0.00423562784388
85 229 0.010838361227
89 226 -0.100780066774
180 207 -0.135007552455
18 222 -0.0727059584613
19 203 -0.0881869720519
38 229 -0.0256259868817
145 225 0.0632581849748
98 195 -0.00886232573176
27 197 -0.101851695387
122 205 -0.00360994949599
51 203 -0.0812115238972
146 205 -0.104600681916
40 231 0.0322276896033
155 214 -0.249346596703
179 220 0.654615583063
17 201 0.0884664315692
112 201 -0.115191272214
41 195 -0.00905435579707
207 234 -0.253705778564
144 212 -0.0986608290234
168 218 0.0108342164768
97 212 0.16551130434
23 196 -0.102901728571
26 216 0.349974368218
121 222 0.00552994222683
50 226 0.0127839099202
70 225 -0.00510059828934
150 201 0.0547770984398
153 219 -0.107526907728
102 214 0.0250844061851
174 195 -0.103737058913
31 222 -0.140578409732
126 216 0.00548783722544
55 196 0.00461104224492
79 194 -0.0990937122628
182 201 -0.358053290069
21 197 0.00817481067567
68 224 0.0100356335485
159 203 -0.0122952136534
72 227 0.00649326739115
183 209 -0.0998734666575
45 208 0.0104301580278
149 210 -0.0167726173862
6 197 -0.100407963042
172 213 0.0635405364749
101 201 0.0595388107754
11 209 -0.015426143578
30 207 -0.138107993021
125 211 -0.0124888885354
54 209 0.0073449780256
78 219 -0.0938336374738
138 212 0.057701566787
157 216 -0.0889846250777
162 206 -0.104786849323
181 210 -0.00255140936085
20 208 0.00602283821667
114 215 0.0897048846408
43 209 -0.105694846305
209 233 0.196138095619
67 215 0.0329405274223
91 205 -0.00850765177136
147 207 -0.0675894629642
170 212 0.77233746795
9 210 0.0135666799295
123 220 0.0478342668046
52 208 0.0129506874019
171 194 -0.104008183215
100 228 -0.103609090108
124 226 -0.0897578733569
137 199 0.444374085848
15 226 -0.100810949926
18 194 -0.100001260952
19 231 0.0209310315706
113 192 -0.0691736520573
42 204 -0.101672234386
66 214 -0.157002739466
142 227 -0.00731260793301
145 205 -0.104458984132
169 199 0.154546234776
98 231 -0.130970564296
8 195 -0.1618693632
118 226 -0.00352930592232
122 225 -0.0436964376792
32 217 0.163988039522
71 216 -0.24004244332
95 214 0.397581971917
151 192 -0.106051913027
175 206 -0.0981393902435
13 223 -0.0358828373977
127 193 -0.0729454028058
202 232 -0.194138514794
40 195 0.00342924448802
64 217 0.0239047502218
88 207 -0.00980934145203
22 198 0.000458471522038
46 200 -0.0637672905855
141 204 -0.102294569083
70 205 -0.00666762742885
150 213 -0.0629321570376
173 204 -0.0960715259928
174 223 -0.0732818619456
12 206 -0.00163300202449
36 196 -0.106903900218
139 213 -0.0931731760059
163 219 -0.105900868003
182 213 0.166454964482
21 217 -0.247331157202
187 193 -0.140096543174
44 206 -0.110224956523
68 196 -0.106938532991
92 194 -0.105906471705
148 220 0.0258199424975
116 200 -0.244509438715
10 221 -0.109699828356
34 199 -0.101462194469
58 193 -0.032933218754
77 227 -0.0919006757144
81 224 -0.101404595088
161 200 -0.575665336344
185 194 -0.10825754646
138 200 0.00238728022053
90 193 -0.0566323162061
162 210 -0.115196967049
56 192 -0.0436895221801
167 212 -0.116771287156
170 200 0.0374564546801
9 206 0.000595902008651
191 210 -0.101586842968
33 208 -0.0103200313463
57 218 -0.0119502281203
80 213 0.0355450820269
136 199 0.108966734081
104 219 -0.103220687212
160 221 -0.0062685860223
184 211 -0.00456884128127
38 210 0.0216897070084
133 230 -0.00643827566287
62 212 -0.178486292107
65 208 -0.0990623667936
137 227 -0.110474791708
86 206 -0.00365571992015
89 218 0.0254490312119
15 198 0.00262113767508
109 231 -0.0228129132675
165 213 0.0547822721367
189 207 0.0534327708913
47 209 0.00411946993202
94 212 -0.251262598998
166 193 -0.0331305311479
4 228 -0.0471476326037
118 206 -0.00109539646783
28 226 0.0032664904751
32 229 -0.103367052496
95 202 -0.0834188108548
151 228 0.112855401847
155 225 0.0397913521197
175 226 0.000450103883
13 195 -0.016411595141
179 231 0.059118377223
127 229 0.0117251031236
37 205 -0.00400026773547
61 215 0.0493892768807
140 202 0.015879017602
108 214 0.0505061516021
164 192 -0.24718674847
2 231 -0.106696966509
22 226 -0.0961389657167
188 222 0.0231244537051
26 225 -0.157751300926
46 228 -0.165067439964
50 219 -0.0926673844341
69 205 -0.106357612549
74 213 0.229634528517
93 215 0.00803141276156
3 211 -0.11516155613
153 226 -0.00281533620226
117 209 -0.112078750483
35 194 -0.101743705396
59 216 0.0520705651685
82 219 -0.100912880802
83 206 -0.00798984034696
106 213 0.0207364176121
186 205 -0.0117130715921
115 206 -0.101369025345
49 204 -0.0896228768328
176 201 -0.17977141151
129 197 -0.103621883676
58 229 -0.104842823649
78 224 -0.0965479412501
81 204 0.00103199462815
7 220 -0.365398390726
105 198 -0.000820923099663
161 212 0.079727437205
185 222 -0.00224485434702
39 207 0.0395635453595
134 225 0.0534065353819
63 197 0.00359899530206
87 195 -0.0807873096352
0 197 -0.0948110990819
111 201 0.0376042594364
24 203 -0.103239334225
190 216 -0.158473304125
143 194 -0.00782673739206
56 220 -0.260859494108
119 195 0.0386884333728
132 224 -0.0979237211769
136 227 -0.106556317092
85 192 -0.188552015103
14 196 -0.0082472977653
133 218 -0.00470060435324
15 218 0.00688276047665
109 203 -0.0137532379185
165 201 0.0714598709541
189 211 0.0200473198601
142 219 -0.10207185182
146 230 -0.103147946765
75 212 -0.118131423936
4 216 0.0971033481146
99 218 0.0235854740082
28 198 -0.0892397248373
178 215 0.113735875287
131 215 0.0420609329319
60 215 0.0266702485081
155 205 -0.00242370046002
84 221 -0.0968191830595
13 231 -0.0395934655278
107 212 0.113103791333
179 195 -0.0137959253268
37 225 0.0105477946016
41 230 -0.00555102085454
73 213 0.0333802044919
164 228 0.103630321824
2 203 0.0339984464962
97 207 -0.05908797162
188 226 -0.113474075364
26 197 0.0167656182098
121 193 -0.0352383556334
212 232 -1.14271996105
74 201 0.358661619077
3 207 -0.123830641173
177 192 0.00218999472178
31 229 -0.00830533465288
55 227 -0.0979417863456
130 214 -0.0207034378489
59 228 0.0665101379718
154 208 -0.112163258628
103 215 -0.00126679128793
106 201 -0.0599958708575
16 209 -0.00397267738055
182 226 -0.12002930053
186 225 -0.0379471711979
135 216 0.0168281450921
48 194 -0.0997755723365
159 214 -0.0735091032846
72 200 -0.0580236829882
1 220 -0.571668918852
183 204 -0.00827049250134
96 222 -0.0746172898939
25 214 0.0289688948749
120 212 -0.13405227331
128 217 -0.337095720192
77 218 0.00229280435179
152 207 -0.162873045211
6 222 -0.116401942643
101 212 0.0901245217666
30 208 -0.00957692247757
125 206 0.00455156677949
54 202 0.0130050832411
7 192 0.173166359953
110 205 -0.104073428185
134 205 -0.102884652395
158 199 0.339595267811
87 231 0.0244055998123
91 224 0.00850925797087
194 235 0.124499705173
76 203 0.0295941351015
5 193 -0.0380084164172
171 217 0.0482655967725
100 193 -0.0783531665374
29 219 -0.100929877131
124 223 -0.0590465736095
53 213 0.0483621612918
132 196 -0.0091948211332
156 194 -0.00781757132348
85 228 -0.183501446068
89 225 -0.0988423357407
180 200 0.04041166505
18 223 -0.085502297285
19 202 -0.102909279717
113 219 -0.101571098318
145 224 -0.104273440562
98 192 -0.364592046654
27 196 -0.0983427317194
122 202 -0.0890310680871
51 202 -0.0733541426565
146 202 -0.0923798394359
179 223 -0.141412081724
17 200 0.0444522484583
112 202 0.00663212985414
41 194 -0.00353477570031
144 213 -0.011848682624
168 219 -0.00222255811372
23 199 -0.00303873055383
26 217 -0.179424874574
121 221 -0.0882175843596
50 227 -0.080850706393
70 230 -0.106127358921
150 206 -0.101779465074
153 218 -0.00373325645172
173 231 -0.112625971811
102 215 -0.0062829308814
174 192 -0.0670790250985
31 217 0.0934725563
126 217 0.10632301371
55 199 0.0716687622525
79 205 -0.00597088260932
182 206 -0.100389612141
21 196 0.00429309931114
68 225 -0.130490966551
159 202 -0.00971383080448
72 228 0.0602462012174
183 208 -0.0124237110602
45 207 -0.0573843288127
149 209 0.00631611345593
172 214 -0.16822145089
101 200 0.0294474005034
11 208 -0.00986408264356
30 204 -0.105661262769
125 210 -0.0143095065229
54 214 -0.146052880661
78 216 -0.109218841234
138 213 0.0731497733609
157 215 -0.000994900371107
162 207 -0.0711068005646
181 209 0.0155943037694
20 209 -0.0125791535115
114 212 0.178562312482
205 235 -0.012708745225
43 208 0.0105739352758
209 232 -0.0814023603158
67 214 0.107240673891
91 204 -0.105002081888
147 206 -0.100269271901
170 213 0.49389501253
9 209 -0.0841963473993
123 223 0.0163753803658
33 203 -0.0268112620186
52 209 -0.09956306059
171 197 0.0079265158359
100 229 0.0258876206951
104 224 -0.106126289319
124 227 0.00458061711021
65 203 -0.108623958239
137 198 -0.0128534799891
18 195 -0.0805128322536
19 230 -0.102784688176
113 199 0.113502776108
42 205 -0.10235748824
66 215 -0.0844875769054
142 224 -0.0947371046545
145 204 0.00544634676767
166 218 0.021468932434
169 198 0.00626145419272
98 228 0.248416017822
8 196 0.00245337292956
118 227 -0.00719979715265
32 218 -0.120044253944
71 219 -0.0898140559121
95 209 0.00384934967614
151 195 -0.111872268763
175 201 -0.184088997067
13 222 -0.0251424031695
127 192 -0.0284001476086
202 233 0.339495641563
40 196 -0.10488542615
64 218 -0.0846356331892
88 208 -0.0898623412558
22 199 0.0741793591915
46 201 0.0333363246315
141 203 -0.100582385324
70 194 -0.104401198888
173 203 -0.125607040223
174 220 -0.0543001904519
12 207 0.0122614468641
36 197 -0.0181198354999
139 212 0.0226981185068
163 218 -0.0899535033585
21 216 0.0498724462168
187 192 0.0134468617264
44 207 -0.0259496255419
68 197 0.0374823758112
92 195 -0.0772133533294
148 221 0.00626678193221
116 201 -0.374944298897
10 218 -0.00774783716043
34 196 -0.103967089282
58 206 -0.109091398972
77 226 0.00678814945212
81 231 0.0261706425333
161 207 -0.0978512552068
185 193 -0.0596552963304
138 201 0.105608465038
90 206 -0.104053524071
162 211 -0.0932669642927
56 193 0.0956540133436
167 215 -0.00676790870787
170 201 0.071853882546
9 205 -0.0955464380185
191 221 -0.00152809941086
33 215 -0.0525666647206
57 217 -0.181147111636
80 214 -0.0582487401102
136 200 -0.151777117684
104 220 -0.266696255661
160 222 -0.10506200815
184 212 0.0493099258811
38 211 -0.127019928494
133 229 -0.111276256768
62 213 -0.149707249736
65 215 0.0466759768841
137 226 -0.103495415016
86 207 -0.0516334981452
89 217 0.254134500834
15 193 -0.0902630744798
109 230 -0.00565904653763
165 212 0.0729907226225
113 227 -0.00850965321605
189 206 -0.103381496531
47 208 -0.0844861417084
94 213 -0.0756397752864
166 198 -0.111879195357
4 229 0.0106901909329
8 224 -0.116092529629
118 207 -0.0192043388586
28 227 0.00663354610884
32 230 -0.00671474577608
60 204 -0.103810010454
151 231 -0.00132418344103
155 224 -0.112646483641
13 194 -0.100454288594
179 230 -0.0974308158062
127 228 -0.0468340894802
37 204 -0.0112978009748
61 214 -0.102519572652
140 203 -0.0220998857903
108 215 0.0419528394689
164 193 -0.0508695220248
2 228 -0.124183183459
22 227 0.00603267562872
188 223 -0.172214223278
46 229 -0.0840809155416
50 216 0.363916201771
69 204 -0.00433893318435
74 210 -0.126737914265
93 214 -0.075935170986
3 210 -0.083041107161
153 225 -0.113677191965
117 208 -0.101319471751
177 219 -0.110549092742
35 197 0.00112463785654
59 219 -0.00775788398141
82 216 0.0279391802785
83 209 -0.0180406288765
106 210 -0.00824860011602
186 202 -0.113328925491
115 209 -0.0998473818742
49 195 -0.0950097375028
176 202 -0.0179968659207
45 218 0.0204455546864
129 196 -0.10046145666
58 226 -0.00464954573173
78 225 -0.102977283237
81 195 -0.00898127256769
7 223 -0.109895250726
105 197 -0.00623254387963
185 221 -0.00347902895887
39 206 -0.00143125961957
134 230 -0.00386012158443
63 196 -0.100955761063
87 194 -0.000562308146342
0 198 -0.101245594813
111 200 0.05464030511
24 204 -0.00112676597016
190 217 0.131376962201
143 205 -0.00142748463541
56 221 -0.0955300472155
119 194 -0.107909748179
132 225 -0.0312711050264
136 228 -0.149162158403
85 207 -0.0441991608976
14 197 0.029939714257
133 217 -0.1236888104
109 202 -0.105183227164
165 200 0.14601844925
189 210 -0.106848857293
142 216 -0.180038300161
146 231 -0.00995483136587
75 215 0.0679065396045
166 226 -0.10036697521
4 217 0.0319233210929
99 221 -3.61384746053e-05
28 199 -0.159508735648
178 212 0.197843413787
131 214 -0.151485993419
60 208 -0.105319994056
155 204 -0.0019804923337
84 222 -0.0718676017939
13 230 -0.00118921426634
107 215 0.0757162783988
179 194 -0.104721078697
17 227 -0.101181698858
37 224 -0.109398681337
41 229 -0.00710633083146
73 212 0.236019753203
164 229 -0.0277301501576
2 200 0.716015040818
168 224 0.000865882787867
97 206 0.00304482268138
188 227 -0.025153021407
26 194 0.00549421694531
121 192 -0.122435128067
212 233 -1.37150079074
3 206 -0.00419990262344
177 199 -0.0623609166435
31 228 -0.136620457851
35 225 -0.0919495828158
55 226 0.00234517181587
130 215 0.0805078695678
59 231 -0.0587588930825
154 209 -0.104603993308
103 214 0.133838849694
16 210 0.0129155227961
182 227 -0.0300938573181
135 219 -0.000546528562224
48 195 -0.0801463680746
159 209 -0.101602057025
72 201 -0.10967752636
1 211 -0.043692677557
183 207 -0.10103969399
96 223 0.0231672435015
25 213 -0.0692934059885
120 213 -0.11700940618
128 218 -0.0101910171026
77 217 -0.309054241326
152 208 -0.115823527436
6 223 -0.109434697644
101 211 -0.104670660251
30 209 0.000232425900128
125 205 -0.00225493802744
54 203 -0.101052321208
7 195 -0.0361291734552
110 210 -0.00117392223492
134 194 -0.00473890957983
158 196 -0.0252373133008
87 230 -0.00601228988607
91 227 -0.0994839506271
194 232 0.0511436514764
76 196 0.0104359119054
5 192 0.424494401157
171 216 0.0680639231562
100 194 -0.100592227718
29 218 -0.106967829968
124 216 -0.0637826788852
53 212 0.227797396272
132 197 -0.0979100437471
156 195 -0.114170835052
85 227 0.00327287827531
89 224 0.00620003669523
180 201 -0.0780004851875
18 220 -0.00769069294433
19 205 -0.103348205689
113 218 0.00938623837125
42 214 -0.170401345462
145 231 0.0171222703009
98 193 0.0808679834115
27 199 0.0348179395823
122 203 0.01870621954
51 205 0.00325000381698
146 203 0.0204534207876
179 222 -0.03883807117
17 207 0.00750411079321
112 203 -0.00536478828692
41 193 -0.216369770492
144 214 0.0765083682871
168 220 -0.0536733005818
23 198 -0.109856961835
117 231 -0.0518482346262
121 220 0.000726276917056
50 224 -0.103425830848
70 231 -0.0342568734236
150 207 -0.0952890564163
153 217 -0.110794078652
173 230 0.000692658197809
102 212 -0.146069365857
174 193 -0.0933936722657
177 227 -0.0085588301769
31 216 0.027598456812
126 222 0.0112186317018
55 198 0.00946346639195
79 204 -0.0982617544109
182 207 -0.187983432055
21 195 0.0191294769796
44 228 -0.463523709687
68 226 -0.102299161233
72 229 -0.0782305214383
183 211 -0.101226367285
45 206 -0.0976885437183
149 208 -0.0121656145073
172 215 0.000416986518049
11 211 -0.045400520664
30 205 -0.00453672067839
125 209 -0.0954051088524
54 215 0.0183761055583
78 217 -0.0112046736346
138 210 -0.0152733445189
157 214 -0.0106401012028
162 204 -0.105272402303
181 208 -0.127190642615
20 210 0.025842953802
114 213 0.109977993123
205 234 0.121417024569
43 211 -0.0837148561531
67 217 0.034200458591
91 207 0.0970030104427
147 209 -0.0976922113266
170 210 -0.0256435492795
9 208 -0.00396609782065
123 222 0.0281275189807
33 202 -0.0146310042013
52 210 -0.000619216102934
171 196 -0.0998546311461
100 230 -0.00350238271328
104 225 -0.136601259773
65 202 -0.00616608678368
137 197 -0.100306468225
18 192 -0.0409912314318
113 198 -0.111131105742
42 202 0.00964954363301
66 212 0.042842095054
142 225 -0.0630576914538
145 195 -0.00640547585231
166 219 -0.10309388229
169 197 -0.0192954819973
98 229 0.0401005187904
8 197 0.0160644870495
118 224 -0.0943426070402
32 219 -0.110033741349
71 218 0.0507807108755
95 208 -0.087944544787
151 194 -0.102192922126
175 200 -0.146933984763
13 221 -0.0150974213997
127 195 0.00144410599109
37 215 -0.0113219426689
40 197 0.00960999363857
64 219 -0.0958003354064
88 209 -0.00609073217465
22 196 -0.097464215383
46 206 4.55664593886e-05
69 215 -0.0289010608047
141 202 -0.100953731497
70 195 0.018352404889
154 230 -0.107451258745
173 202 -0.109270830336
174 221 -0.101815857892
12 200 -0.263838096895
36 198 -0.105238742508
139 215 0.066888052661
163 221 -0.102844503113
21 231 0.0238045840432
187 195 -0.091555680747
44 200 -0.0827197381797
68 198 -0.00990306655575
92 220 0.175595368673
148 222 -0.0956958741529
116 202 0.00778536773162
10 219 -0.101476218994
34 197 -0.0119784465361
58 207 -0.0226811468012
77 225 -0.0571278349509
81 230 -0.00739607325302
161 206 0.00389333922282
185 192 -0.240826728854
90 207 0.0527029074666
162 208 -0.00541540470034
56 194 -0.0994169156322
167 214 0.14340621977
9 204 -0.00188460189367
191 220 0.932392824053
33 214 -0.0901637220941
57 216 0.034443350718
80 215 0.0626200820415
136 201 -0.271215115635
104 221 -0.0958992120295
160 223 -0.129804070003
184 213 0.0711925988674
38 208 -0.112830134463
133 228 -0.131835677389
62 218 -0.00928111121936
65 214 0.145469125727
137 225 0.0262135378828
86 204 -0.00220429989723
89 216 -0.0471247317894
15 192 -0.207602087323
109 229 -0.00896372511495
165 211 0.00948612877077
113 226 -0.00459649764021
189 205 -0.00961114238142
47 211 0.0466361231148
94 218 0.0299181832276
166 199 0.158329403881
4 230 -0.00325469179228
8 225 -0.242893502329
118 204 -0.105047208807
32 231 -0.0367407191991
60 205 -0.109794820742
151 230 -0.106163627057
155 227 -0.114948465392
13 193 -0.0632508171831
127 231 -0.0238844892978
37 203 -0.0318865913672
61 213 0.0232587528661
140 196 -0.117578665581
108 208 -9.12156642784e-05
164 194 -0.00732779129759
2 229 0.0292546231628
22 224 -0.0876268971724
188 216 -0.549877864792
50 217 -0.469836451478
69 203 -0.00293039603584
74 211 -0.110191612648
93 213 0.0560162111375
3 213 -0.0470303515326
153 224 -0.104712915761
117 223 0.00193174779567
177 218 -0.105560435074
35 196 -0.00638778106428
59 218 -0.0133725898121
82 217 -0.00605792567106
83 208 -0.100679798545
106 211 -0.0171231810877
186 203 -0.0975947438886
48 216 -0.0993472906532
115 208 -0.100531814625
49 194 0.00297438868438
176 203 -0.149446854994
129 219 -0.00176507520528
58 227 -0.101373353465
78 230 -0.00636167014415
81 194 -0.0987442987672
7 222 -0.0485524496637
105 196 -0.102378162828
181 231 0.0915199050711
185 220 0.970960921661
39 201 -0.16218787762
134 231 0.0577024332725
63 199 0.158076613754
87 221 -0.0980396332387
0 199 -0.158751346457
111 203 -0.10017756584
24 205 -0.0993180069487
190 222 -0.0706338122946
143 204 -0.103865462359
56 222 -0.118602336025
119 221 -0.108504816876
132 226 -0.10369195974
136 229 -8.09939210543e-05
85 206 -0.00257785104734
14 202 -0.145462925974
133 216 -0.0743269389204
109 201 -0.206083311752
189 209 -0.0147969063605
142 217 -0.0630653891502
146 228 0.566970572992
75 214 -0.0463465012742
166 227 -0.00789889092899
4 218 -0.106543368753
99 220 0.0823706548309
28 192 0.0788461697439
178 213 0.1257608476
131 217 -0.416780539205
60 209 -0.11681144418
155 207 -0.154503234286
84 223 0.0142783909278
13 229 -0.113883276529
107 214 -0.0529645813478
179 197 -0.159956967861
17 226 -0.00891482179295
41 228 -0.450027095365
73 219 -0.094048052192
164 230 -0.000693326762014
2 201 0.840642678781
168 225 -0.0721953500909
97 205 -0.104461081866
26 195 -0.0386632538909
121 199 0.102863696094
212 234 0.0553671350798
177 198 -0.109846750508
31 231 -0.0147387621063
35 224 -0.115772895947
130 212 0.191442175359
59 230 -0.00626787693541
154 222 -0.0228246675097
103 209 -0.0145885867412
16 211 -0.101803231236
182 224 -0.11694152863
206 234 0.109161277322
135 218 -0.0835870022754
48 196 0.0107247955802
159 208 -0.011543637528
72 202 0.0193202144221
1 210 0.0111183485424
183 206 -0.104363900182
96 208 -0.095458116751
25 212 -0.0951826996943
120 214 -0.0399973131848
128 219 -0.00519947298925
77 216 0.278585742927
152 209 0.00981617576323
6 220 0.0237339277877
101 210 -0.112300519138
30 214 -0.0377541406115
125 204 0.0077658518506
54 200 -0.17981449723
78 194 -0.0987205061889
7 194 0.00212831964519
110 211 -0.0979810651452
134 195 -0.101477193723
158 197 -0.0320589168788
87 225 -0.0089625338337
91 226 0.00237362620657
194 233 0.151328877922
76 197 -0.0903260166119
5 207 -0.118193928103
171 219 -0.00308741514481
100 195 -0.0837994395334
29 217 -0.040051425173
124 217 -0.145147496222
53 211 -0.0147662997454
132 198 -0.0101511228653
156 220 -0.172067587555
85 226 -0.0989962650995
89 231 0.0428024832861
180 202 -0.0226311105206
18 221 0.00158591134247
19 204 -0.106277242404
113 217 0.112456752677
42 215 -0.111574466274
145 230 -0.105121822238
98 222 0.00519735155178
27 198 -0.0959083977975
122 200 0.173912118868
51 204 -0.0937368732216
146 200 0.160217801605
17 206 -0.0166772278339
112 204 -0.102140373382
41 192 0.54117883879
144 215 0.155790537345
168 221 -0.102988707306
23 193 -0.270049825046
117 230 -0.107503431395
121 227 0.00331996495616
50 225 -0.0999346912159
70 228 -0.0945125373382
150 204 -0.000262141053013
153 216 -0.0465408535814
173 229 -0.1298685532
102 213 -0.146840911518
174 198 -0.00152667324439
177 226 -0.00220796989555
31 219 -0.00693986291245
126 223 0.0212002311382
55 193 -0.0320144377589
79 207 0.036994689901
182 204 -0.109598361513
21 194 -0.0999664302848
44 229 0.014082162082
48 224 0.00617086996855
68 227 -0.100568626384
72 230 -0.00583939013602
183 210 -0.00714949414665
45 205 -0.00112439452504
45 227 -0.0958964471682
149 223 0.0636273362743
172 208 -0.0090514665932
11 210 -0.0671038263424
125 208 -0.00276787340813
54 212 0.022432335646
78 222 -0.0800433735983
138 211 0.00692793477136
157 213 0.0806805337905
162 205 -0.111304306255
181 223 -0.0417400342083
20 211 -0.0897727538833
114 210 -0.114586318677
205 233 0.18010584235
43 210 -0.0957250505298
67 216 -0.00517885516463
91 206 -0.102879902767
147 208 -0.0981940328921
170 211 -0.138073486947
9 215 0.0425600002795
123 209 0.014439067069
33 201 -0.0904168791866
52 211 0.012773103539
57 195 -0.012355580989
171 199 -0.204125679089
100 231 0.0904328060871
104 226 -0.0968682441049
65 201 -0.108060786956
137 196 -0.0138153120449
89 195 0.0210589621104
18 193 -0.0764586445738
113 197 -0.0977499688679
42 203 0.00967734888269
66 213 0.118202313919
142 230 -0.105841084528
145 194 -0.100895436309
166 216 -0.206879589308
169 196 -0.0969706648341
98 226 0.0103708374601
8 198 -0.103726043111
118 225 -0.0682346738648
32 220 -0.462592886936
71 213 -0.384778240701
95 211 0.0593548606613
151 221 0.00489960780128
175 203 -0.107804802636
13 220 -0.126421071769
127 194 -0.100442698304
37 214 0.0656191510614
40 198 -0.105727469236
64 220 0.176349175703
88 210 -0.109594511531
22 197 -0.0716388118014
46 207 -0.0176094038669
69 214 -0.140091780696
141 201 0.157222817263
23 229 0.0226657890661
70 192 0.0475834352423
154 231 0.0730620991243
173 201 -0.0341874967167
174 226 0.00568777080442
12 201 -0.153000061822
36 199 0.371966403754
139 214 0.094942359229
163 220 0.201469988409
21 230 -0.00125531654382
187 194 -0.107058118306
25 227 0.00976020516639
44 201 -0.0147852138237
68 199 0.168830176888
92 221 -0.0139081302577
148 223 -0.0495560399853
116 203 -0.021333377281
10 216 0.0596558858747
34 194 -0.00138973402743
58 204 -0.0037042411973
77 224 -0.106707048759
81 229 0.00786760931705
161 205 -0.0953042469918
185 199 0.761177406726
90 204 -0.103861290384
162 209 -0.0144342632979
56 195 -0.0218371988274
167 209 0.0353247093878
191 223 -0.157328435444
33 213 0.080299578329
57 223 -0.0709128508086
80 200 0.256263321984
136 202 0.00730689535561
104 222 -0.00647641471446
160 208 -0.0165410373183
184 214 -0.152528414553
38 209 -0.00773807584487
133 227 -0.109220429706
62 219 -0.00632078120575
65 213 -0.162846885178
137 224 -0.0949085858684
86 205 -0.104300210548
89 223 -0.00326922316547
15 195 0.0107748061902
109 228 -0.122199707572
165 210 -0.113217252293
113 225 -0.0482998870318
189 204 -0.00545388127285
47 210 0.0164662818537
142 194 -0.106262114227
94 219 0.00477392678281
166 196 -0.0118627424826
4 231 0.0698002542731
8 226 -0.106352979693
118 205 -0.106232356133
60 206 -0.108955784105
151 225 -0.0400636198146
155 226 -0.00950642027312
84 196 -0.0981075415708
13 192 0.170549049303
127 230 -0.104006714751
37 202 -0.0269836204759
61 212 0.0336367213459
140 197 -0.102088467789
108 209 -0.0989880115657
164 195 -0.0647658832128
2 226 -0.100594639183
22 225 -0.140080851155
188 217 -0.0499344454765
50 214 -0.226552919351
69 202 -0.100710663101
74 208 -0.0870557804164
93 212 -0.000171074806883
3 212 -0.20507181394
153 231 0.047321183196
117 222 -0.0855632471096
177 217 0.00406511299428
35 199 -0.431880704328
59 221 -0.106448551378
82 214 0.0390766681735
83 211 -0.11296540362
106 208 -0.105503238792
186 200 -0.0160923627401
48 217 -0.030675237018
183 229 -0.0152999919411
115 211 -0.0690536677274
49 193 0.113005937317
176 204 -0.101039708241
34 230 -0.103682220688
129 218 0.0028270143663
58 224 -0.00873198050273
78 231 0.0625011335988
81 193 0.0516964095849
7 217 0.0772867117028
105 203 0.000884597594005
181 230 -0.0051420332834
185 227 -0.131073400443
39 200 -0.202907220202
134 228 -0.122797317545
63 198 -0.0974560343006
87 220 -0.00867309567181
0 216 -0.0402360274438
111 202 -0.0960277961553
24 206 -7.93588142367e-05
190 223 -0.0194695842898
52 228 -0.0124939174847
143 207 0.0180272414124
56 223 0.039906045203
119 220 0.467831159201
132 227 -0.106404058025
136 230 -0.105236247896
85 205 -0.00388358225313
14 203 -0.118248089795
133 199 -0.0262903302638
109 200 -0.0837662083916
189 208 -0.0992326268696
142 222 0.0329356902403
146 229 0.0154609057088
75 201 -0.169602786373
166 224 0.00599551477325
4 219 -0.101013277791
99 223 0.0151709314517
28 193 -0.0679043816971
178 210 -0.104098883491
131 216 -0.0633863490997
60 210 -0.0146499165421
155 206 -0.101177892427
84 216 -0.147693234579
13 228 -0.222565624362
107 201 0.0633665493401
179 196 -0.125115536844
17 225 -0.222902511479
73 218 -0.0875311950986
164 231 -0.00131005273802
2 198 -0.0857436943211
168 226 -0.0962267364739
97 204 0.00587398872683
26 192 0.0314982471214
121 198 0.00869859388151
212 235 1.05034019047
153 195 -0.114331797563
177 197 -0.108384284702
31 230 -0.104423765687
35 227 -0.104856362408
130 213 -0.002151797425
154 223 -0.0785762294949
103 208 -0.0985530699098
16 212 -0.218776001673
182 225 0.236346917993
206 235 0.0292610623147
135 213 0.000171888043042
48 197 -0.0976500706994
159 211 -0.00158390435352
72 203 -0.0804808157199
1 209 -0.127409998057
183 201 0.0273423085989
96 209 -0.091405840049
25 219 -0.0965466601351
120 215 0.126907919145
128 220 -0.0382344763309
77 215 -0.0344881153883
152 210 -0.11462633972
6 221 -0.00205443029067
101 209 -0.104014374278
30 215 0.0546989588246
125 203 0.008486103742
54 201 -0.0948924359527
78 195 -0.0949482363581
110 208 -0.105623848433
134 192 -0.102597384941
158 202 -0.121697641127
87 224 -0.091276469973
91 229 0.014516133668
76 198 -0.0871752652903
5 206 -0.119038361176
171 218 -0.0908235333696
100 204 -0.0972182093661
29 216 0.233325447768
124 218 0.0137214964632
53 210 -0.106766630353
132 199 -0.212942894778
156 221 -0.112169272815
85 225 -0.124040995718
89 230 -0.10477427027
180 203 -0.121927632876
18 218 -0.0792014733788
19 207 0.0564561596666
113 216 -0.129203261242
42 212 0.00838483753557
66 206 9.39233327039e-05
145 229 -0.0770738081811
98 223 0.0088288975506
27 217 -0.0343481589651
122 201 0.0811264090977
51 207 0.0553256519386
146 201 0.0747549836542
226 234 -0.0370906361948
17 205 -0.10860177838
112 205 -0.00588034487337
41 199 -0.223851169776
144 200 -0.112335617332
168 222 0.00813082606055
23 192 0.635066475758
117 229 -0.104902905877
121 226 -0.0920689870833
70 229 -0.0933704489934
150 205 -0.00728775903108
153 223 -0.0763495330089
173 228 0.738452101565
102 202 0.000446447511123
174 199 -0.137471487983
177 225 -0.10254050951
31 218 -0.117085998434
126 220 -0.271792632656
201 235 0.799591734461
55 192 -0.151280454357
79 206 -0.00217798154161
182 205 -0.09586631355
21 193 -0.058806432081
44 230 -0.105497080828
48 225 -0.0221283307671
72 231 0.0511993170986
148 196 0.00424661114722
45 204 -0.000646147772735
149 222 -0.12279170058
172 209 -0.0891768616605
11 213 -0.188283446183
54 213 0.0733619045734
78 223 0.0422583493365
138 208 -0.00250978764374
157 212 0.072655675609
162 202 -0.104920922265
181 222 -0.135073353167
20 220 -0.288188747729
114 211 0.0125684280042
205 232 -0.0492521663854
43 213 -0.145060764835
67 219 -0.0938807513586
91 193 -0.101593472067
147 211 -0.0916227660359
170 208 -0.0145051610026
9 214 -0.1297546576
123 208 -0.0942455381962
33 200 -0.113024619984
52 220 0.0577162329318
57 194 0.000509441679783
171 198 -0.101047818275
100 224 0.00534174560307
104 227 -0.0970327683779
203 233 0.280064073792
65 200 -0.130118198049
137 203 -0.122506905304
89 194 -0.00151146450157
113 196 -0.112200426081
42 200 -0.0634977146832
66 210 -0.108930124953
142 231 0.0849198200037
145 193 0.00385514670084
166 217 0.151797313405
169 203 -0.0848887769081
98 227 -0.0875666864249
8 199 -0.755576396918
118 230 -0.00672909067921
32 221 -0.113342940894
71 212 -0.604669077099
95 210 0.00169762310042
151 220 -0.0924203308598
175 202 -0.107529248774
13 219 -0.103246544651
127 205 -0.103138517842
37 213 -0.155770422112
40 199 0.0924853064133
61 207 -0.121951759617
64 221 -0.00442032959432
88 211 -0.0729641327821
22 218 0.0358111572455
46 204 -0.00415386969232
69 213 -0.0122236774663
141 200 0.0591897193844
93 207 -0.0642099457786
23 228 -0.736171978069
70 193 -0.14030638697
154 228 0.194297340589
173 200 0.0314492964539
174 227 -0.102570351819
12 202 -0.00593969808257
36 192 -0.0938923424307
139 201 -0.246583405731
163 223 -0.104672850239
21 229 0.0143972698599
187 197 -0.0128060266283
25 226 0.00541313135683
44 202 -0.0075237184701
68 192 0.375594441518
92 222 -0.0620725156466
148 216 0.0883239010647
116 212 -0.315214061888
10 217 0.0716066534481
34 195 -0.0302820252992
58 205 -0.109034852729
81 228 0.0893845638716
161 204 -0.106153746349
185 198 -0.130914225913
90 205 -0.110651295563
56 196 -0.0946147445356
167 208 -0.104590352015
191 222 -0.0452144211072
33 212 0.0408448414416
57 222 -0.105467537305
80 201 0.272206066515
136 203 -0.00457149050348
104 223 -0.0595633236144
160 209 -0.08327301848
184 215 -0.0448422134861
38 214 0.121620381353
133 226 -0.00603935393534
62 216 0.00143491627777
65 212 -0.313664025658
137 231 0.00759342089743
86 194 0.000380368730171
89 222 -0.0656275140554
15 194 -0.100475638158
109 227 -0.00554803635638
165 209 -0.115370857705
113 224 -0.0974536696112
189 203 -0.0806042596582
47 221 -0.114743599694
142 195 0.0236536570833
94 216 -0.118223637376
166 197 0.00411084836671
4 224 -0.107767283163
8 227 -0.096111972536
118 194 -0.106942765022
60 207 -0.11124467765
151 224 -0.0063509280764
155 229 -0.0287264859755
84 197 0.00499930254732
127 225 0.0393211717029
37 201 -0.0840561824041
61 211 -0.12394540829
140 198 -0.0157494233018
108 210 -0.104647095466
164 204 -0.00402227128016
2 227 0.0131026650347
22 230 -0.00292078986137
188 218 -0.109335141166
50 215 -0.0532816387096
69 201 0.014242471958
74 209 -0.137269070001
93 211 0.0180247691173
3 215 0.0281928307087
153 230 -0.00844053896702
117 221 -0.0037529097721
177 216 -0.0913796554671
35 198 -0.109195213863
130 206 -0.00247571371457
59 220 -0.0622968687466
82 215 0.0720352587595
83 210 -0.000842920059767
106 209 -0.0171118793881
36 228 0.0926544831235
186 201 0.110817196953
48 218 -0.0886172250985
72 208 -0.0907402551273
183 228 -0.0705213927191
115 210 -0.112517742322
187 225 -0.00633293098962
49 192 -0.263940434346
176 205 0.00264677746666
34 231 -0.0448631195095
54 226 0.00285959674742
129 217 -0.100253312697
58 225 -0.113070199915
78 228 -0.0685064114619
81 192 -0.215450714849
7 216 0.122215448641
105 202 -0.10687648459
181 229 -0.0477746468629
185 226 -0.119350022425
39 203 -0.110227501998
134 229 -0.125465248048
63 193 0.0103569508655
87 223 0.0184069551663
0 217 0.131620180827
111 213 -0.00843634842926
24 207 -0.0945413478754
190 220 0.257889904881
52 229 0.0272709844055
143 206 0.00361459835942
56 224 -0.110399101905
119 223 -0.135492252962
136 231 0.111245616047
85 204 -0.0010322370169
14 200 0.164291661228
133 198 -0.012351318927
109 199 -0.0179537252512
142 223 -6.70222336945e-05
146 226 0.00482399331927
75 200 -0.1109403908
166 225 0.0589313050131
4 196 -0.0921253736734
99 222 -0.0658206907763
28 194 -0.0974964392836
178 211 -0.123734439972
131 219 -0.108471622762
60 211 -0.0206119243261
155 193 0.0532827575535
84 217 -0.169695873925
13 227 -0.0012856226983
107 200 0.134187481319
179 199 0.476533650028
17 224 -0.102946564313
73 217 -0.295542891095
164 224 0.00421214725383
2 199 -1.11043358326
168 227 -0.00105039957052
97 195 0.00463386360319
26 193 0.143771679208
121 197 -0.00715859054739
153 194 -0.103016899891
177 196 -0.108928615716
31 225 -0.0345447613344
35 226 -0.0116181584566
130 210 -0.0110239144303
154 220 -0.0182036369337
103 211 -0.00389104505546
16 213 -0.115995753023
182 230 -0.0997824441639
206 232 -0.115338665489
135 212 0.0298282362457
48 198 -0.0845971017281
159 210 -0.00949702808012
72 204 -0.0956005812647
1 208 -0.10380807233
183 200 0.0229400267429
96 210 -0.00491346772647
25 218 0.00368402843886
120 216 -0.0900583350401
128 221 0.0127492069959
77 214 -0.143483192554
152 211 -0.028717904347
6 210 -0.0853907490609
101 208 0.00302118704837
30 212 -0.0347126870247
125 202 0.00739643191459
54 206 -0.0967678612977
78 192 -0.244120068834
157 207 -0.133322486411
110 209 -0.0956546486809
134 193 -0.117340532746
63 229 -0.103078003925
158 203 -0.0478320535665
87 227 0.00307792451697
91 228 -0.0635781443605
76 199 0.0199269284755
5 205 -0.115487196043
171 221 -0.00323263905049
100 205 -0.1010005152
29 215 0.0953021191717
124 219 -0.0962954320889
53 209 -0.121940408469
132 192 -0.0235735819251
65 227 -0.00313572435785
156 222 -0.0189121311633
85 224 -0.0942675148845
89 229 -0.0910768731356
180 212 0.0156347168588
18 219 -0.0926837805577
19 206 -0.00370972976465
113 223 -0.0187161953444
42 213 -0.0121871901178
66 207 -0.0552085487912
145 228 0.22653324238
98 220 -0.450305402478
27 216 -0.0672125382564
122 214 -0.224568234196
51 206 0.00692963592047
146 198 0.0188732938953
226 235 0.0247956960947
17 204 -0.117701433617
112 206 -0.101588041534
41 198 -0.115146473987
144 201 -0.166230500575
168 223 -0.072195140138
23 195 -0.0737973225832
117 228 0.0244966598134
121 225 -0.0347115121305
70 218 0.0286627119096
150 194 -0.00278872602761
153 222 -0.0130670750866
173 227 -0.0128957311162
102 203 0.0243269822982
174 196 -0.00156329001081
177 224 -0.105949665841
31 197 -0.10490364869
126 221 -0.0944931377573
201 234 -0.859490719917
55 195 -0.104443186143
79 201 0.0166152690017
182 194 -0.107867380279
21 192 -0.0847157310587
44 231 -0.0806477865298
48 226 -0.0908586578227
148 197 -0.101443196393
45 203 0.0111725214423
149 221 -0.0859708909304
172 210 -0.00592836298242
11 212 -0.322576178539
78 220 -0.135671429035
138 209 -0.00881466429338
157 211 -0.120022276798
162 203 -0.0928372531493
181 221 -0.111803317791
20 221 -0.125901528045
114 208 -0.0015183904214
43 212 -0.108336642234
67 218 0.0242029285924
91 192 0.0286454506011
147 210 -0.101668963018
170 209 -0.0870071025572
9 213 -0.0795478043041
123 211 -0.0808384442215
33 207 -0.0404205220128
52 221 -0.0848054812144
57 193 -0.0313136293155
136 208 -0.00248251202601
100 225 0.0229196117061
104 228 -0.0790722481175
203 232 0.0270341006362
65 207 0.0530602356243
137 202 0.0130580709665
89 193 -0.125487221939
42 201 -0.011706430138
66 211 -0.0840194209939
142 228 0.0286124102571
145 192 -0.280838734703
166 222 0.0298425528812
169 202 0.00337353221694
98 224 -0.00516000942624
8 200 0.623310459592
118 231 0.0893919342526
32 222 -0.161771741577
71 215 -0.0600403341882
95 221 -0.0148333118669
151 223 -0.0612228222986
175 213 0.0418144948805
13 218 -0.101907862059
127 204 0.00281438045842
37 212 -0.163505050381
40 200 -0.0857673507157
61 206 -0.0118412534818
64 222 0.0193733887599
88 212 -0.115463165928
22 219 0.00889511489488
46 205 -0.00162826597395
69 212 0.0414812551651
141 199 -0.133151566195
93 206 -0.00267998018762
23 231 0.00613405371548
70 198 -0.104899144537
154 229 -0.103133106363
173 199 0.239040299025
174 224 -0.00116501231136
12 203 -0.113341384447
36 193 -0.00948257360874
139 200 -0.240014021932
163 222 0.020890354383
21 228 0.0486338689836
187 196 -0.0194770396321
25 225 -0.0481928841111
44 203 -0.0895080253937
49 219 -0.0916354224345
68 193 -0.197707526084
92 223 -0.0200815929641
148 217 -0.169129762316
116 213 -0.100045439009
10 198 -0.00333118755226
120 225 0.0848355535261
58 202 -0.115500340304
81 219 -0.0997587156487
161 195 0.019127450674
185 197 -0.0487818431053
90 202 0.0026913075094
56 197 -0.106882342935
167 211 -0.0508670516047
191 217 0.0241747983499
57 221 0.00716497848921
80 202 -0.101259701722
136 204 -0.102001171812
104 192 -0.00130931568068
160 210 -0.108900900046
184 216 -0.266121780032
38 215 0.0178062556521
133 225 -0.0960831367506
62 217 0.146416812848
137 230 -0.000984631060114
86 195 -0.0889362911471
89 221 -0.00454253581255
15 205 -0.101746303142
109 226 -0.0048042949625
165 208 -0.102535534288
113 231 -0.0270803615878
189 202 -0.00240181568337
47 220 0.143112670867
142 192 -0.123413299879
94 217 0.246113495009
4 225 -0.166132200226
8 228 -0.33615551772
118 195 0.0241896084589
60 200 -0.0682325875208
151 227 -0.00239697617317
155 228 0.265586981663
84 198 -0.0961995894242
127 224 -0.101004664277
37 200 -0.0943027934524
61 210 -0.00454542937751
140 199 0.547591996063
108 211 -0.0931442476137
164 205 0.00299558265144
2 224 -0.118347524188
22 231 -0.0329616540415
188 219 -0.0113361634364
50 212 0.403496964866
69 200 0.114209837749
74 222 0.00867991379806
93 210 -0.00845145081028
3 214 0.0416298413839
153 229 0.00685452934617
117 220 -0.126189425586
177 223 0.00396488469275
35 201 0.275027874876
130 207 -0.117947604767
59 223 0.0105656613598
82 212 -0.0412085647792
83 213 -0.0152988923075
106 222 -0.113620457504
36 229 -0.127851930738
186 214 0.0971282721459
48 219 0.00773645116664
72 209 0.000423728097241
1 203 0.0128887678774
183 231 -0.00465132936236
115 213 0.0164748712734
187 224 -0.00269519487596
49 199 -0.0201752577412
176 206 -0.0962470029622
34 228 -0.00344343976652
54 227 -0.0981602783729
129 216 -0.056056486954
78 229 0.0247431681351
81 199 0.107926632867
7 219 -0.103290748086
105 201 -0.0474879145613
181 228 0.109141289903
185 225 0.183522453951
39 202 -0.096544730062
134 218 -0.0103366289309
63 192 -0.240805364164
87 222 0.0355033460293
0 218 -0.106543239146
111 212 0.159081121118
24 208 0.000488400724004
190 221 -0.106335587661
52 230 -0.000774298852255
143 201 -0.533347974874
56 225 -0.105202528021
76 220 -0.0744928067181
119 222 0.051001987908
85 203 0.00799016920179
14 201 0.219601752082
133 197 -0.1076850649
109 198 -0.110501754064
193 235 0.303085749843
142 220 0.211623583864
146 227 0.00235393330539
75 203 0.0232804670284
166 230 -0.106067986063
4 197 0.0119189591643
99 193 -0.132154290113
28 195 -0.116005428796
178 208 -0.0213802322077
131 218 -0.0135107550266
155 192 -0.274186906083
84 218 -0.0831460877137
13 226 -0.00433948044566
107 203 -3.414241726e-05
179 198 -0.0212932037121
17 231 -0.0463360093608
73 216 0.0228015533527
164 225 0.075543416894
2 196 0.0173591121447
168 228 -0.136685609611
97 194 -0.100122535258
26 206 -0.108539042761
121 196 0.00581011108857
153 193 0.034096701038
31 224 -0.0122007210699
35 229 -0.0200240985749
130 211 -0.0155053687531
154 221 -0.000198133445387
103 210 -0.104914665728
16 214 0.123291581817
182 231 -0.052898187625
206 233 0.186660624814
135 215 0.102309944996
48 199 0.265125918951
159 221 -0.00857922737545
72 205 -0.0033951581066
1 215 0.0117235328754
183 203 -0.114016014302
96 211 -0.0783328460925
25 217 0.0937189716617
45 230 -0.00126983969384
49 227 0.0134971094497
128 222 -0.00668045583194
77 213 0.151478515154
152 212 0.470175282863
6 211 -0.116001179275
101 223 0.0618019466316
30 213 -0.079729405171
125 201 0.164017940644
54 207 0.0239553511363
78 193 -0.0590025363123
157 206 -0.108440153506
110 214 0.131995412986
134 198 -0.016375593613
63 228 0.140668762429
67 225 -0.0952154093866
158 200 -0.143600738313
87 226 -0.0986049930359
91 231 0.104041451487
76 192 -0.124226896034
5 204 -0.106809774867
171 220 -0.114641335877
100 206 -0.0962428548413
29 214 -0.117448773803
124 212 0.0345499983015
53 208 0.00801489448831
132 193 -0.00984006639018
65 226 -0.104994490592
156 223 -0.110708637455
89 228 -0.188240745893
180 213 0.00880777898344
18 216 -0.0774561036436
19 209 -0.105523069216
113 222 0.0275967652434
42 210 -0.00235550875835
66 204 -0.102037186437
145 219 -0.102736448808
98 221 0.0229080946058
27 219 0.0034012072125
122 215 -0.0205497814114
51 209 0.0115422414314
146 199 -0.0203561562543
226 232 -0.0600600846532
17 195 -0.0185600614431
112 207 0.0653229363534
41 197 0.0307314743378
144 202 0.00235861869326
168 192 -0.0887631109403
23 194 -0.102709416613
117 227 -0.00594777158373
121 224 -0.00228951003484
70 219 -0.0936658174916
150 195 -0.00615638168146
153 221 -0.100270278832
173 226 -0.00556443960162
102 200 0.0194561609501
174 197 0.000610781877751
177 231 0.00715298272023
31 196 -0.0999315730846
126 194 -0.000734711055194
201 233 -1.41254719785
55 194 -0.0994795691873
79 200 0.0328749437374
182 195 -0.00921402555692
21 207 -0.0494672341584
44 224 0.00907219101522
48 227 0.00709085671855
148 198 -0.0941679190655
45 202 0.00845126272314
149 220 0.0823130433687
172 211 -0.00768885505233
11 215 0.116421273041
78 221 0.00745076087873
138 222 0.0122690424548
157 210 -0.00919394432832
162 200 0.131503891103
181 220 0.165933314005
20 222 -0.0921373766071
114 209 -0.0140956417465
43 215 0.00485711791714
67 221 -0.00455887865701
91 195 -0.0791600016223
147 213 -0.0221702886687
170 222 -0.0223579502586
9 212 -0.184634322259
123 210 -0.100541157705
33 206 -0.00583853489468
52 222 0.0276607372183
57 192 -0.308341893164
76 228 0.0934954419226
136 209 0.00494907276054
100 226 -0.0898050840458
104 229 -0.0775147494212
203 235 0.196699653674
65 206 -0.106840731775
137 201 -0.440127903335
89 192 0.0619202617216
66 208 -0.0918213507759
142 229 -0.100212331817
145 199 0.111660838595
94 226 -0.0990326857125
166 223 -0.108217799546
169 201 -0.022938016269
98 225 -0.148463914306
8 201 0.626480216221
118 228 0.00778855421448
32 223 -0.0905427166098
71 214 0.304329011474
95 220 0.362920977219
151 222 -0.0105256823569
175 212 0.239633549371
13 217 0.408656276422
127 207 0.0101093664131
37 211 -0.12137061803
40 201 0.0493236288355
61 205 -0.00954499681808
64 223 -0.115618307284
140 220 0.542121742322
88 213 -0.00743089214138
22 216 0.0252773885629
46 210 -0.0953599667505
69 211 0.0113803398722
141 198 -0.00666770891482
93 205 -0.108613581211
23 230 -0.104170262555
117 199 0.0791959307289
70 199 0.220412442369
154 226 -0.104332342175
173 198 -0.100397042997
174 225 -0.0888573378214
12 196 -0.101177192727
36 194 -0.102712434117
139 203 -0.104369629036
163 193 -0.0135588847521
21 227 0.0050335946873
187 199 0.173067200746
25 224 -0.00246076244355
44 196 -0.10430580537
49 218 -0.0875224370286
68 194 -0.00479704774017
92 216 -0.144355635197
148 218 -0.0942465714522
116 214 0.129486194348
10 199 -0.242877845936
34 193 -0.0700879403761
58 203 -0.103572546114
81 218 -0.000256690987371
161 194 -0.10699157307
185 196 -0.134415124807
90 203 -0.0915931296192
56 198 0.00920516169773
167 210 -0.108861035757
191 216 -0.455139084804
53 231 -0.112239462298
57 220 0.0335943272615
80 203 -0.0757509311113
136 205 -0.00399237023678
104 193 0.0411327133039
160 211 0.000795398558367
184 217 -0.25866316002
38 212 -0.485001639944
133 224 -0.00359977420297
62 222 -0.0251749238869
137 229 -0.114377484793
86 192 -0.103587398936
89 220 -0.0329588244246
15 204 -0.101192135477
109 225 -0.105084511956
165 223 -0.0848063329764
113 230 -0.103848435175
189 201 0.0544907661227
47 223 -0.134374049834
142 193 0.00269421221662
94 222 0.0410378296844
4 226 -1.42559647119e-05
8 229 -0.103050778319
118 192 -0.121105173169
131 225 0.0555093007953
60 201 -0.0529582545381
151 226 -0.0969496074375
155 231 -0.0477979890116
84 199 0.102453806418
127 227 0.000205711718932
61 209 -0.0147680071004
140 192 -0.0908708464461
108 204 -0.102904878536
164 206 -0.0938943926724
2 225 -0.302732068045
22 228 -0.281339820252
188 212 -0.0757456390846
50 213 0.131057288076
74 223 0.0268360685299
93 209 -0.114544785292
3 217 0.179602551805
153 228 -0.060738937428
117 219 -0.103758200904
177 222 -0.0157094919309
35 200 0.26246021236
130 204 0.00158396076468
59 222 -0.12687998517
82 213 0.0165554808878
154 198 -0.0052633843736
83 212 0.0509006933736
106 223 -0.0833148776829
36 230 -0.102322923537
186 215 0.149050001337
48 220 0.133794848682
72 210 -0.00970240395001
1 202 -0.0286213379678
183 230 -0.107773799256
96 200 -0.214539055058
115 212 -0.00679556422007
187 227 -0.0157972786596
49 198 -0.0740166784091
176 207 -0.198365008359
34 229 -0.120258082041
54 224 -0.0975277751619
129 223 -0.0745868047487
81 198 -0.0939181334336
7 218 -0.111249179901
105 200 0.0440426104356
181 227 -0.0218586063448
185 224 -0.1091771512
39 197 -0.105365250577
134 219 -0.0101103007818
63 195 -0.0786614616322
87 217 -0.104704253177
0 219 -0.101880144178
111 215 0.0739463961381
24 209 0.0112153854134
190 194 -0.00675838457521
52 231 -0.0256659535085
143 200 -0.54563046885
56 226 0.000570550746332
76 221 -0.0923358434051
5 215 0.0527133764409
119 217 0.527912666831
85 202 -0.0940279005176
14 206 -0.11753184133
133 196 -0.111582537744
109 197 0.00217202947959
193 234 -0.0776581163602
142 221 -0.100940686643
146 224 -0.0131771683573
75 202 0.0162942311285
166 231 0.0933219279426
4 198 -0.0957218830886
99 192 -0.112447673315
28 220 -0.245050858344
178 209 0.0123776690124
131 221 -0.0932001521466
155 195 -0.0143145649368
84 219 0.00561497892431
13 225 -0.139382264928
107 202 -0.113393162138
179 201 -0.402101521822
17 230 -0.104663147337
140 228 -0.0468658941959
73 223 -0.0148086667916
164 226 -0.00685109122967
2 197 -0.0862207304627
168 229 -0.0829191926073
97 193 0.0815591899744
26 207 -0.13665609932
121 203 0.0156157078905
153 192 -0.0883300965335
31 227 -0.100795651232
35 228 -0.171495405782
130 208 -0.105918480952
154 218 -0.0126232494833
103 205 -0.00969534483639
16 215 -0.0557049988733
182 228 0.448079394786
135 214 0.0811053597289
159 220 -0.12031786604
72 206 -0.0966893519843
1 214 0.0384283206302
183 202 -0.0110764547842
96 212 -0.0557863132682
25 216 0.0746453847525
45 229 0.0101652554758
49 226 -0.0875402339868
120 224 0.00110686834376
45 231 -0.00921310456009
128 223 0.0324270382871
77 212 0.258671782013
149 199 0.0464687393088
152 213 0.273223687679
6 208 -0.103024528373
101 222 0.00715485094636
30 218 -0.0188829568133
125 200 0.0392273382803
54 204 -0.0965704258087
78 198 0.0106170430996
157 205 -0.109136487572
181 199 0.216649254826
110 215 0.022988668633
134 199 0.0910336961901
63 231 0.0103573970738
67 224 -0.0914526183717
158 201 -0.143123925738
91 230 -0.108089443816
123 201 -0.0698817267015
76 193 -0.0310422150059
5 203 -0.081058913858
171 223 0.032932431097
100 207 -0.0417224951877
29 213 -0.0449995863519
124 213 -0.0361688769056
53 223 0.0826039926782
132 194 -0.103506149046
65 225 -0.0918460406342
156 216 0.0763136174677
180 214 -0.0793153231626
18 217 -0.102567048573
19 208 0.00860024783379
113 221 -0.103071307582
42 211 -0.0826838230316
66 205 -0.104764971758
145 218 -0.0989412062512
98 218 -0.0980809228713
27 218 -0.00257469065957
122 212 0.487780300467
51 208 -0.0865797666968
146 196 0.0109816041339
226 233 0.15303051795
17 194 -0.101657824823
112 192 -0.160221813458
41 196 -0.00898632438991
144 203 -0.0830191017926
168 193 -0.0973936069913
23 221 -0.0212937292528
117 226 -0.104475868989
121 231 0.0299753173337
70 216 -0.0417162276102
224 232 -0.0274500905852
150 192 0.0199663243834
153 220 -0.24536399975
173 225 0.175479894748
102 201 -0.0981816322466
174 202 -0.100154309071
177 230 -0.00786102521464
31 199 -0.177720538907
197 235 -0.00298735162865
126 195 0.00453247290756
201 232 0.636093387021
55 221 -0.091794901125
79 203 0.0221376559929
182 192 -0.354874717639
21 206 0.00298236946845
44 225 -0.17917641612
48 228 0.0550178640563
148 199 0.0363514542005
45 201 0.159869768609
149 219 -0.110584389468
172 204 0.001069542536
11 214 0.079986047067
138 223 -0.0877600068046
157 209 -0.102017548126
162 201 0.0544047950699
181 219 -0.0212235097079
20 223 -0.152228172821
114 206 -0.0049927925247
43 214 0.092862595751
67 220 0.0839788996692
91 194 -0.10460082021
147 212 -0.108828020771
170 223 0.0868119969913
9 219 -0.0987256546331
123 213 -0.0391797100056
33 205 -0.00408830464867
52 223 -0.0455691440358
57 199 0.0868305866408
76 229 0.0296321258458
80 224 -0.00433030185851
136 210 -0.0105609152516
100 227 -0.0936958550339
104 230 -0.00697624902058
160 200 -0.192019698556
199 233 0.5230753516
203 234 -0.205772283249
65 205 -0.00371827082111
137 200 -0.339813409259
89 199 0.0965234015673
66 209 -0.104320250556
145 198 -0.0895633834043
94 227 -0.00223908054154
166 220 0.245368767477
169 200 0.00407131371565
8 202 -0.152864790233
118 229 -0.00531111096625
32 208 -0.0107347600214
71 209 -0.0042175212454
95 223 -0.141216971178
151 217 -0.316568070491
175 215 0.111221235381
13 216 -0.100008729801
127 206 0.00141952474739
37 210 0.0106212394888
40 202 -0.110523346916
61 204 -0.008142961617
64 208 -0.0964919371115
140 221 -0.101000384272
88 214 0.0864299251611
22 217 0.172444512863
46 211 0.0295314037444
69 210 -0.105677678777
141 197 -0.109616066822
93 204 -0.104981893905
23 225 -0.0900845252028
117 198 -0.00870960599445
70 196 -0.104729843329
154 227 -0.107969754764
173 197 -0.0506513794914
174 230 -0.00694515522878
12 197 -0.102240960036
36 195 -0.00159667200853
139 202 0.00805850790041
163 192 -0.105059150346
21 226 -0.0954493150566
187 198 -0.0185159617098
25 231 0.075862729189
44 197 0.0440016196765
49 217 -0.158287318579
68 195 0.0205501186594
92 217 0.594518890206
148 219 -0.00110928404793
116 215 -0.0660453393761
10 196 -0.100765783611
34 222 -0.0390292594316
58 200 0.0567649845008
81 217 -0.29056899559
105 211 -0.0189545112186
161 193 -0.0421003014447
185 203 -0.0845715011307
90 200 0.0618199419976
56 199 -0.114150974404
167 205 -0.0973414749324
191 219 -0.00240204272052
53 230 -0.104558583713
57 227 -0.00082460294532
80 204 -0.0995120037925
136 206 -8.15031510621e-05
104 194 -0.100061411184
160 212 0.112226553853
184 218 -0.119370465804
38 213 -0.303998560682
62 223 -0.128689010939
137 228 -0.136533870522
86 193 -0.108808930152
15 207 0.0368669163506
109 224 -0.0998240519653
165 222 -0.0944306420147
113 229 -0.11015899158
189 200 0.152690428951
47 222 0.0551121167119
142 198 -0.00928100011943
94 223 -0.0175754778463
4 227 0.00682018409057
8 230 -0.104206597294
118 193 -0.00832506737384
131 224 -0.00794522318362
60 202 -0.111292539789
155 230 -0.103440344714
84 192 -0.173500001276
107 225 -0.052474830222
127 226 0.00310101328517
61 208 -0.00822086379754
140 193 -0.162329228563
108 205 -0.103549367309
164 207 -0.0261751098281
22 229 0.020265044503
188 213 0.0282334359342
50 210 -0.120716698288
74 220 -0.589143117799
93 208 0.00334658369231
3 216 -0.13902893951
117 218 -0.0936360933433
177 221 -0.00732155631501
35 203 -0.0201256151002
130 205 -0.00605749572037
59 209 -0.0185260959176
82 210 -0.00518719304444
154 199 -0.0660626382405
83 215 0.0669040602885
106 220 -0.134489402413
36 231 0.0585249075931
186 212 0.0180004208582
48 221 -0.0852501700071
72 211 -0.0791287775695
1 201 0.383580577559
183 225 -0.0840137878042
96 201 -0.156227881758
115 215 0.0678280619664
187 226 -0.108110317487
25 195 -0.0175757185383
49 197 0.00357754849384
176 192 -0.434217399905
34 226 -0.00816301535243
54 225 0.0863684726773
129 222 -0.00102600937273
81 197 -0.108471426876
7 213 -0.0589787072606
105 207 -0.112602812181
181 226 -0.113269570523
185 231 0.06016754645
39 196 -0.103398196474
134 216 -0.125748847088
63 194 -0.100068484289
158 210 -0.107351478201
87 216 -0.118235692882
0 220 -0.0979100395756
111 214 -0.00632984970135
24 210 -0.089684758697
190 195 -0.0763946440598
52 224 0.00686879568034
143 203 -0.116140607453
56 227 0.00239241813246
76 222 0.0207804120073
5 214 -0.0895377649226
100 212 -0.00712786427006
119 216 -0.244011936725
85 201 -0.106994373684
14 207 -0.138714763149
133 195 -0.107240334062
66 230 -0.104023478967
109 196 -0.10935599648
193 233 -0.307664901145
146 225 0.0966378803691
75 205 -0.105208460037
166 228 -0.0637292979534
4 199 -0.405295786691
99 195 0.0211205249424
28 221 -0.0960758358799
178 206 -0.101830746277
131 220 -0.0272220584614
155 194 -0.103355724882
84 228 0.00352575543326
13 224 -0.105246165415
107 205 -0.0107898156476
179 200 -0.420404979895
17 229 -0.10224405271
140 229 -0.114399091235
144 224 -0.1012265056
73 222 0.0213106513434
164 227 -0.118024549526
2 194 -0.0950196437421
168 230 -0.107077236057
97 192 -0.142403638183
26 204 0.00472304686255
121 202 0.011238093801
153 199 -0.0924638779376
31 226 -0.00407404541303
35 231 0.0488313888711
130 209 -0.00549752262652
154 219 -0.11148968444
103 204 -0.00115786821823
16 200 -0.0855819597382
182 229 -0.0797456638337
135 209 -0.105193522073
159 223 -0.112411983162
72 207 -0.0415932430399
1 213 0.00623380589478
183 197 -0.0106984312324
96 213 -0.0155069435491
25 223 0.0482529881443
45 228 0.107140400615
49 225 -0.00462238370011
128 208 -0.0053510770617
77 211 -0.112965314142
149 198 0.00646323688801
152 214 -0.216134427624
6 209 -0.0907530146628
101 221 0.014684453331
30 219 -0.105212881606
125 199 -0.104977180575
54 205 -0.0996053313091
78 199 0.0678804996954
157 204 -0.109701660519
181 198 -0.123782210833
110 212 -0.206921690354
20 196 -0.105232781658
134 196 -0.115919955601
63 230 -0.101528460883
67 227 -0.0997099224197
158 206 -0.00526464833319
123 200 -0.0631652958434
52 196 -0.0849481589154
76 194 -0.100265962116
5 202 -0.0459092459137
171 222 0.00144224929006
100 200 -0.207226147297
29 212 0.0846881040262
124 214 -0.0630539041099
53 222 -0.101935189635
132 195 0.00263562867659
65 224 0.00339745953072
137 211 0.0254732941971
156 217 0.0134498186166
180 215 0.134101852393
18 214 -0.153324889784
19 211 0.015840675743
113 220 0.202538952306
42 208 0.0105238798424
66 202 -0.0910442145552
145 217 -0.299975350773
169 211 -0.111523208405
98 219 -0.0967735090583
27 221 -0.0959903887828
122 213 0.183295073563
51 211 -0.0788078208008
146 197 -0.132273612228
127 213 -0.0530310279147
17 193 -0.246450009051
112 193 -0.0769295793003
41 203 -0.110627578389
144 204 -0.00187653114007
93 231 0.084373781292
168 194 -0.103976800662
23 220 -0.0887104253034
117 225 -0.007413773177
121 230 -0.00332081750124
70 217 0.280882304147
224 233 0.303658923062
150 193 0.0200778815792
173 224 -0.117655277355
102 206 -0.107580280694
174 203 -0.0812564646995
177 229 -0.000921007999372
31 198 -0.000116829237379
197 234 -0.0995019939809
126 192 0.0433631187
55 220 -0.0148499987155
79 202 0.00688583989136
182 193 -0.0146786811614
21 205 -0.100606526931
44 226 -0.00449812033462
48 229 0.0135003390294
148 192 -0.188325590738
45 200 0.172961251323
149 218 -0.125028762935
172 205 -0.00156592290947
11 201 0.436421975346
138 220 -0.100608489558
157 208 -0.120048366758
162 198 -0.109697391616
181 218 -0.0306504849463
20 216 0.0563273452003
114 207 0.04226861807
43 201 -0.00528632925393
67 223 -0.103818069879
34 218 -0.121123502537
91 197 -0.0844225356576
147 215 0.150413674945
170 220 0.299558466365
9 218 -0.106671010282
123 212 -0.0448096152011
33 204 -0.00483351891587
52 216 0.0537964400811
57 198 -0.0924314351448
76 230 -0.105625897111
80 225 -0.160764068614
136 211 -0.0830024456541
104 231 -0.0604789085872
160 201 -0.282186436867
199 232 -2.22107168981
65 204 -0.0115136247432
137 207 -0.031097009859
89 198 -0.103308646985
47 197 0.0500638981439
145 197 -0.108923554488
94 224 -0.0893219352216
166 221 -0.105877745633
169 207 -0.107278480939
8 203 -0.00336129972484
32 209 -0.131100575046
71 208 -0.0873939612711
95 222 -0.0361003574972
151 216 -0.0467010847989
175 214 -0.0759793654877
13 215 0.0694113017108
127 201 -0.118989358914
37 209 9.39823411405e-05
40 203 -0.0095270469858
61 203 -0.0154522277379
64 209 0.0048839709327
140 222 0.0447468968076
88 215 0.0144530077496
164 212 -0.00335245255158
22 222 0.0317660668916
46 208 -0.0872443011498
69 209 -0.111033110661
141 196 -0.109058137167
93 203 -0.00494248789495
23 224 -0.0837299689255
117 197 -0.104604988389
70 197 -0.0807047539347
130 230 -0.0056436507964
154 224 -0.108393036298
173 196 -0.106864506269
174 231 0.110092205692
12 198 -0.101894321189
36 204 -0.00571703083446
139 205 -0.105937985836
163 195 0.0158659070095
21 225 -0.084443331435
187 217 0.0106555528954
25 230 -0.1035989054
44 198 -0.108273776403
49 216 0.101097324746
68 204 -0.0127262474396
92 218 -0.0687528732998
148 228 0.205819941412
116 208 -0.103865672497
10 197 0.00484010574959
34 223 -0.105199682183
58 201 0.043193666524
81 216 0.0208762091292
105 210 -0.112612829334
161 192 -0.222061230541
185 202 -0.108529342726
228 232 -1.48500919466
90 201 0.0205686343588
56 200 0.30822837856
167 204 -0.105323366578
191 218 -0.0821901371973
53 229 0.0318565166125
57 226 -0.103731914607
80 205 -0.10779607607
136 207 0.0588606299934
104 195 -0.112112874111
160 213 0.0856339240607
184 219 -0.0156912955025
38 202 -0.139170242994
62 220 -0.0108107971483
86 198 -0.000310626059997
15 206 -0.000142820304722
109 223 -0.116950830615
165 221 -0.00636957643064
113 228 -0.0838763207823
189 199 -0.192136504921
47 217 0.873529401148
142 199 0.265481983784
94 220 0.120596814779
8 231 0.0711593788207
118 198 -0.111310890598
131 227 -0.106739110364
60 203 -0.0122241638706
84 193 0.0101206365613
107 224 -0.109526574176
140 194 -0.00662942846389
108 206 -0.102687272031
164 200 -0.480073852391
188 214 -0.00572884214513
50 211 -0.0142992334378
74 221 0.0208583064659
3 219 0.0027827143846
117 217 -0.160503256453
177 220 -0.179258403768
35 202 -0.0418927029532
130 202 -0.105124923035
59 208 -0.10774994973
82 211 -0.00613249041389
154 196 -0.00730527017843
83 214 -0.0327114461479
106 221 -0.102789480147
36 224 -0.105003382283
186 213 -0.0147996902641
48 222 -0.0664164513877
72 212 -0.0826210191926
1 200 0.395302732908
183 224 -0.00357391982457
96 202 -0.0867171510656
115 214 0.115905766036
187 229 -0.0258366269703
25 194 0.00229182506071
120 192 0.0245253507332
49 196 -0.0800424175061
176 193 0.091526911577
34 227 -0.104519468943
54 230 -0.000900584779352
129 221 0.00646617134106
81 196 -0.0970351819208
7 212 -0.125747943016
157 231 0.0771150813952
105 206 -0.00728613288312
181 225 0.00957799066808
185 230 -0.0976322734863
39 199 0.200908241754
134 217 -0.00787815940924
63 205 -0.00098579525492
158 211 -0.121189426166
87 219 -0.0929265936185
0 221 -0.00726403234858
111 209 -0.0117355122698
24 211 -0.0992161191854
190 192 -0.0767365817988
52 225 0.0345861825027
143 202 0.019751117061
56 228 0.180030364936
76 223 0.053967448272
5 213 0.0138906753603
100 213 0.00421852218518
119 219 -0.0986615830939
29 207 -0.157649132005
85 200 -0.0894413815528
14 204 -0.0179194819853
133 194 -0.104658837474
66 231 0.00197508575389
86 226 -0.000895400293825
109 195 0.00412999312586
193 232 -0.423152626821
146 222 -0.11432019082
75 204 0.00170002395323
166 229 -0.0983464319571
4 192 0.251010276698
99 194 -0.102801133984
28 222 -0.11301651477
178 207 -0.0527084878137
131 223 0.0155113136133
155 197 -0.0340344819257
84 229 0.00756861196543
88 224 0.00893501709544
107 204 -0.101810483144
179 203 -0.17188966622
17 228 -0.557911086226
140 230 -0.103255917754
144 225 0.0373987385696
73 221 0.0142931543868
2 195 -0.169407202167
168 231 0.129852286311
97 199 -0.0565315981765
26 205 -0.113158567902
121 201 -0.145891625909
153 198 -0.104012427732
35 230 -0.0053818787992
154 216 0.0149855280362
103 207 -0.0747762655942
16 201 0.0334313885091
135 208 0.000829750027434
159 222 -0.108600495459
1 212 -0.13539400632
183 196 -0.116124679821
96 214 -0.0108162686157
25 222 -0.110513636724
120 220 0.100974564882
49 224 -0.0970362093156
128 209 0.00792154429102
77 210 -0.113543538139
149 197 -0.130676887566
152 215 -0.0476688565089
6 214 0.00656423932103
101 220 -0.203179692304
30 216 -0.114730502955
125 198 0.0107869662009
54 194 0.00073966984571
78 196 -0.0925262823918
157 203 -0.0225490249318
181 197 -0.0334714931154
110 213 -0.0861156707884
20 197 0.0495288383801
134 197 -0.0119749665879
63 225 -0.0499120777096
67 226 -0.00138394072645
158 207 -0.15082059744
123 203 -0.0812673007575
52 197 -0.0892492216768
76 195 -0.0943079664165
5 201 0.770184587984
171 209 -0.00029058196851
100 201 -0.223118148973
29 211 -0.0423461247518
124 215 -0.0105164518673
53 221 -0.0858845174064
132 204 -0.00362684008626
65 231 0.0840879298088
137 210 -0.00496295610516
156 218 -0.00520984393988
180 208 -0.119908450295
18 215 -0.0734448868648
19 210 0.0121245509851
113 211 0.0204237604359
42 209 -0.101013355715
66 203 -0.100168730897
145 216 0.0722652727511
169 210 -0.0124724988849
98 216 0.168798995909
8 208 -0.0100632702406
27 220 0.162522639024
122 210 -0.123140032576
51 210 -0.100703048184
146 194 -0.0976299294888
95 229 -0.0865766297346
127 212 -0.00948535460265
40 208 -0.100406261381
17 192 0.5552147625
112 194 -0.104186529439
41 202 -0.126840729759
141 223 -0.0830059185151
144 205 -0.10592785656
93 230 -0.107563872421
168 195 -0.0961531915754
97 227 0.0089693577661
23 223 -0.148648447646
117 224 -0.0986951343098
121 229 -0.0856352663721
70 222 -0.0698436313794
224 234 0.0206384102635
150 198 -0.0980937798735
173 223 0.0412971777704
102 207 0.0299596976759
174 200 0.0182899797034
177 228 -0.0506361280728
31 193 -0.0796164533697
197 233 0.283295318608
126 193 -0.100727988664
55 223 0.0317901972863
79 213 0.0454234892812
182 198 -0.129567976293
21 204 -0.000283079225355
115 225 0.0302925575716
44 227 0.00200167226793
48 230 -0.101267603389
148 193 -0.0309681828042
45 199 0.138800782078
120 221 -0.0966283945964
149 217 -0.668607052939
172 206 -0.0963528707688
11 200 0.302262882015
138 221 -0.100748394906
162 199 -0.251205882605
181 217 -0.248510247415
20 217 0.948791035664
114 204 -0.00560012717002
43 200 -0.0670576795441
67 222 0.0291058999769
91 196 -0.103183986353
147 214 0.00595281205934
170 221 0.025457386486
9 217 -0.120868586944
123 215 -0.0180909731622
33 195 -0.115244264935
52 217 -0.0842022547052
57 197 -0.0188949964679
76 231 0.0950482581296
80 226 -0.0951181047056
136 212 0.00594407810796
160 202 -0.00817409732982
199 235 -1.18961898115
184 192 -0.056250785635
65 195 -0.0887155166276
137 206 -0.095936397966
89 197 0.0190084701048
47 196 -0.00232043692837
145 196 -0.09275589025
94 225 -0.0872794391015
166 210 -0.00998145627375
169 206 -0.0971213423279
8 204 -0.111653308121
32 210 0.0133274279584
71 211 -0.055136233155
95 217 0.906788374631
151 219 -0.00659668136899
175 209 0.00847329999246
13 214 0.0533838988514
127 200 -0.127488662631
37 208 -0.112592396187
40 204 -0.109049139247
61 202 -0.0223237768896
64 210 -0.0975359049744
140 223 -0.0292782595135
88 216 -0.0518768594089
164 213 0.0218529108052
22 223 -0.105393248917
46 209 -0.000788388871109
69 208 0.0053726209112
141 195 0.00206015326477
93 202 -0.100814555052
23 227 0.00537699665068
117 196 -0.110671489496
35 209 -0.0216581010589
130 231 -0.0302620461521
150 226 -0.095508666526
154 225 -0.0579289976232
173 195 -0.0199986523206
174 228 -0.127039906473
12 199 0.126151004268
106 230 -0.00852284280365
36 205 -0.10220451199
139 204 -0.103121595778
163 194 -0.00675147326291
1 227 -0.0934024687087
21 224 0.0100315576427
187 216 -0.273127080738
25 229 -0.0771136458519
44 199 -0.143040546137
49 223 0.0864982771431
68 205 -0.00795569242668
92 219 -0.0965510943057
148 229 0.0235155824816
152 224 -0.0146528494293
116 209 0.0131945259501
10 194 -0.0983798592537
34 220 -0.0800910232812
58 214 -0.134507659935
81 223 0.0314711268837
105 209 -0.117495164063
161 199 0.746429783
185 201 -0.558334257616
228 233 -1.31871019712
90 214 -0.0115721874014
56 201 0.297392435936
167 207 0.112489021662
191 197 -0.107920265776
53 228 0.0484769428357
57 225 -0.0768264050819
80 206 -0.00440736861073
104 196 0.00455722036338
160 214 -0.0174901942299
184 220 0.37963614601
38 203 -0.0277861095603
62 221 -0.116135234614
86 199 0.0113577466039
15 201 -0.0709795907186
109 222 -0.0934641947602
165 220 -0.299506237207
189 198 -0.106653820683
47 216 -0.179152551044
142 196 -0.011196088954
94 221 -0.108824468589
118 199 0.302000525727
131 226 -0.00391767219795
60 196 -0.00285265476803
84 194 -0.0993396398284
107 227 -0.00266593630449
140 195 0.0378443349682
108 207 0.0309167539414
164 201 -0.541618616653
188 215 -0.158175373112
50 208 -0.0841390358065
141 231 -0.0652065180722
74 218 -0.0924130735592
3 218 0.000504998657643
117 216 0.0564403117099
177 211 -0.0117429442133
35 205 -0.110839567059
130 203 -0.00231068105862
59 211 -0.13122172445
82 208 0.000960121369996
154 197 -0.0196842140875
83 217 0.0920237461088
106 218 -0.104264352079
36 225 0.065719425942
186 210 -0.108507138526
48 223 0.0382816533588
159 229 -0.113161315797
72 213 0.0328563705732
1 207 -0.0705581449371
183 227 -0.0135403464163
96 203 -0.0869357131045
115 217 0.143267988665
187 228 -0.0277439406999
25 193 -0.0434613211438
120 193 -0.026196986106
10 230 -0.0986383053967
176 194 -0.103605015438
34 224 -0.0125335170431
54 231 -0.00290889647986
129 220 -0.160201471432
7 215 0.125462088312
157 230 -0.109069500786
105 205 -0.110353631129
161 227 -0.123848150671
181 224 -0.0135472343302
185 229 -0.0812928165699
39 198 -0.100737775933
134 222 -0.111840119041
63 204 -0.00172552427411
158 208 -0.0268885575092
87 218 -0.0738942649393
0 222 -0.123606430038
111 208 0.00032676486163
24 212 -0.210173723742
190 193 -0.0473154761383
52 226 0.0131691771321
143 213 -0.157881946517
56 229 -0.0974836657751
76 216 0.0701588558471
5 212 -0.0453152056612
100 214 0.0940017779427
119 218 -0.0751393402304
29 206 -0.00991332466484
124 204 -0.0952656921462
85 215 0.0121227781108
14 205 -0.00745155180345
133 193 -0.0962052455998
66 228 0.100499951232
86 227 -0.0979534063746
109 194 -0.103493673908
146 223 0.00269466088938
75 207 0.0511399335838
4 193 0.0105077944607
99 197 -0.0822492060537
28 223 -0.0717901815074
178 204 -0.105469658673
131 222 -0.012722033355
155 196 -0.0140865677776
84 230 -0.105166710358
88 225 -0.00417897579376
107 207 -0.0156841136226
179 202 -0.121939870016
17 219 -0.101508311512
140 231 0.110085120359
144 226 -0.0964287648638
73 220 -0.166091318721
2 192 0.362665669412
97 198 0.0136910049371
26 202 -0.10884246678
121 200 0.00894740892092
153 197 -0.109406880953
225 235 -0.44739284557
154 217 -0.337272829237
103 206 -0.0053585108068
16 202 -0.113775165368
135 211 -0.0877362375112
159 217 0.067531361409
183 199 -0.143674139329
96 215 0.107308761898
25 221 -0.0949590864746
45 226 -0.0974799609636
49 231 -0.0475776495834
128 210 -0.110972614704
77 209 -0.125833256748
149 196 -0.0987367810733
152 216 0.0711392650316
6 215 0.0483351185019
101 219 -0.0995419782359
30 217 0.0262380092447
125 197 -0.014283224941
54 195 -0.0894222948085
78 197 -0.0932438922555
157 202 -0.0215060928184
181 196 -0.0236849431872
110 218 -0.0946034846674
20 198 -0.0126956017066
63 224 0.0071611568664
67 229 0.00614944684285
158 204 -0.110025854893
170 230 -0.100750206902
123 202 0.0180062886658
52 198 -0.0807102265874
218 234 -0.103759811749
5 200 0.747790216685
171 208 -0.102373467477
100 202 0.0174631205916
29 210 0.00651851173185
124 208 -0.0948981865733
53 220 -0.385068923375
132 205 -0.10411196038
65 230 -0.103339723297
137 209 0.0277889481144
156 219 -0.0124243216008
180 209 -0.000362794155592
18 212 -0.027696742591
19 213 -0.210854702017
113 210 -0.00776803211164
42 222 0.0301748177096
66 200 0.00301107558994
145 223 -0.0331140367148
169 209 0.00587789323622
98 217 -0.542830643155
8 209 -0.130607335523
27 223 0.00136918092378
122 211 -0.11783257719
51 213 0.00452613028003
146 195 -0.119300060363
95 228 -0.524214705428
99 225 0.0329806025093
127 215 0.0767808782725
40 209 -0.00218366121625
17 199 -0.430468670072
112 195 -0.0856761097758
41 201 0.155364797269
141 222 0.00792557732326
144 206 -0.00107234439848
93 229 -0.10135529888
168 196 -0.000537039727947
97 226 0.011171824604
23 222 0.0398778972642
121 228 0.155295103063
70 223 -0.114718231457
220 232 -2.05556088978
224 235 0.0305772540607
150 199 -0.0997617794759
173 222 -0.132855689197
102 204 -0.102328104981
174 201 -0.0166832946398
12 220 0.209120664507
31 192 0.0529822381054
197 232 0.201954007161
126 198 -0.0976867605044
55 222 0.00138764727226
79 212 -0.0229632776266
182 199 0.520117214126
21 203 0.0148041730461
115 224 -0.0953648497871
44 220 -0.00244391430268
48 231 0.11585910201
148 194 -0.102489185826
45 198 0.00593246675688
195 233 0.393503327118
149 216 0.0752558988392
172 207 -0.00901866776953
11 203 -0.117228994249
138 218 -0.0910421518875
162 196 -0.110716414504
181 216 -0.100844712077
20 218 0.0374479860282
114 205 -0.0107849511088
43 203 -0.0877144476879
67 193 -0.00775914629688
91 199 0.199698820646
147 217 0.076579389404
170 218 -0.137615202238
9 216 -0.190110293649
123 214 0.102747550645
33 194 -0.102007409644
52 218 0.0167685523889
57 196 0.00237349685387
76 224 0.00319750493543
80 227 -0.093468914017
136 213 -0.105012440948
160 203 -0.0326433078629
199 234 0.980962722877
184 193 -0.0272818319464
65 194 -0.00289984205455
137 205 0.00260291151185
89 196 -0.00346730016712
47 199 0.235388952436
94 230 -0.107819960886
166 211 -0.0692213081508
169 205 -0.0033967654763
8 205 -0.0113821384937
32 211 -0.0530587149692
71 210 0.00708489182774
95 216 -0.312397377336
151 218 -0.00659584073075
175 208 -0.113689229212
13 213 -0.239999171893
127 203 0.00913494115278
37 223 -0.0403702734001
40 205 -0.104311201828
61 201 0.107515316821
64 211 0.0118519458573
140 216 -0.233069090419
88 217 0.126955908696
108 228 -0.0874985694866
164 214 0.0528383715216
22 220 -0.0725970116888
188 204 -0.00592498281758
46 214 0.0966319296865
69 223 -0.00202798229413
141 194 -0.00523062957748
93 201 -0.0405419206638
3 225 0.035511678872
23 226 0.00178450418794
117 195 -0.09260694896
35 208 -0.113054755063
130 228 0.107956219425
150 227 -0.00106935762355
173 194 -0.101109384438
174 229 0.0187930814972
12 192 -0.108529845564
106 231 -0.0316893177402
126 226 -0.0965934497935
36 206 -0.104283862467
139 207 -0.0278653443856
163 197 -0.106356497506
1 226 -0.101301901959
187 219 -0.0113309727026
25 228 -0.00134664043777
44 192 0.381181214128
49 222 -0.0761280480871
68 206 -0.107913285997
92 212 -0.3287001294
148 230 -0.105186250405
152 225 0.133147772936
116 210 -0.105946053655
10 195 -0.11923080041
34 221 -0.108652044159
58 215 0.0850742895681
81 222 -0.0985171452281
105 208 -0.103290648562
161 198 -0.0249135666701
185 200 -0.71455880671
39 221 -0.000166912061049
228 234 0.88490668236
90 215 -0.00985520197691
56 202 -0.111186788136
167 206 0.00585517622036
191 196 -0.022097172755
53 227 0.0119436244754
57 224 -0.1049848028
80 207 -0.092181575158
104 197 0.00892203825441
160 215 0.0818522491487
184 221 -0.107109693274
38 200 0.145345409483
62 194 -0.103336923701
86 196 0.000197203041804
15 200 -0.0837367935011
109 221 -0.107193011258
165 219 -0.105569362949
189 197 -0.0868017573245
47 219 -0.0865382562763
142 197 -0.00246486565133
94 194 -0.106602141992
118 196 -0.0129420599434
131 229 -0.0102316568232
60 197 -0.11688093313
84 195 0.0136005955101
107 226 -0.00376913026723
108 200 -0.0524025151365
164 202 -0.0868331553954
188 208 -0.0203763671261
50 209 -0.136930511132
141 230 -0.107222303878
74 219 -0.0950152209061
3 221 -0.00469425176026
177 210 -0.10497610324
35 204 -0.114044561829
130 200 0.0201194066726
59 210 -0.1010783862
82 209 -0.0149136570657
154 194 -0.103125683995
83 216 0.0259867505541
12 228 -0.110176436703
106 219 -0.00723577443527
36 226 -0.00808084450808
186 211 0.0039149821696
48 208 -0.0907846925166
159 228 -0.109373196688
72 214 -0.052985794898
163 225 -0.042335582126
1 206 -0.0127287090889
183 226 -0.0067227417392
96 204 -0.099816816814
115 216 -0.211508637227
187 231 -0.00616115352575
25 192 0.122801584022
120 194 -0.103424281937
10 231 0.0623422277615
176 195 -0.0194950442788
30 226 -0.104512710747
34 225 -0.129556908778
54 228 0.0707633114991
129 211 -0.10999011594
7 214 0.0645488438644
157 229 -0.0225494214312
105 204 -0.100670506679
161 226 -0.0135538737333
185 228 0.412219764295
39 193 0.0076434207455
134 223 -0.125215360768
63 207 0.0537243619921
158 209 0.019438783185
87 213 0.029662149074
0 223 -0.1095624149
111 211 -0.0902196770614
24 213 -0.0440594485324
190 198 -0.113447523577
52 227 -0.0885368727367
143 212 -0.150344661875
56 230 -0.00406120594528
76 217 -0.162553739175
5 211 -0.169695970088
100 215 -0.0320946863262
119 213 -0.221755615786
29 205 -0.110117761237
124 205 -0.100470546108
53 199 -0.364519821045
85 214 -0.0321290322329
14 210 -0.0662093682689
133 192 -0.0946818239836
66 229 0.000675573448191
86 224 -0.096018015104
109 193 -0.022322942157
146 220 0.0537497638583
75 206 -0.100403056938
4 194 0.00313909214249
99 196 0.00118362001412
28 216 0.111881823028
178 205 -0.0026190485541
131 193 0.0515904224589
155 199 0.26704420097
84 231 0.0354053626659
88 226 0.00213786462996
107 206 -0.10738188147
179 205 -0.0942851569402
17 218 0.0160507605342
112 216 -0.0731542005179
140 224 -0.0942493754117
144 227 -0.10096354272
73 195 -0.0982585275847
2 193 0.00621428508472
97 197 -0.0936746160949
26 203 -0.0461473058336
121 207 0.0133044004794
153 196 -0.105498271633
225 234 0.401230446064
103 201 0.0044429708612
16 203 -0.00409856160632
135 210 -0.0107994707964
159 216 -0.0677575834057
183 198 -0.116295403649
25 220 -0.301629140716
120 222 -0.0851866246385
49 230 -0.00274253823269
128 211 -0.113338973037
77 208 -0.0947616614055
149 195 -0.119530196167
152 217 -0.806627656366
6 212 -0.233380324529
172 228 0.303682365214
101 218 0.000695329570635
30 222 -0.0229782449502
125 196 -0.0940821928146
54 192 -0.300586896244
78 202 -0.087708745905
157 201 0.00336699719862
181 195 -0.017893573493
110 219 -0.103182760789
20 199 -0.228780419867
39 229 -0.108418500385
63 227 -0.100073986192
67 228 -0.0144890011672
158 205 -0.10387641172
170 231 -0.065219500002
190 226 -0.001140104544
123 205 0.00034956090231
52 199 -0.000511592155567
218 235 0.0668620911696
171 211 0.00240407243771
100 203 -0.0768754883982
29 209 -0.0294962780866
124 209 -0.0915889924825
53 219 0.00314608776463
132 206 -0.102929062283
65 229 -0.107040198269
137 208 -0.105303695032
156 212 -0.0156106758359
180 210 -0.00150389118116
18 213 -0.0332887881989
19 212 -0.202628274141
113 209 0.0111040563883
204 232 -0.0808312672572
42 223 -0.0874266870504
66 201 -0.0628246805728
145 222 -0.0994624285353
169 208 -0.106240850179
98 214 -0.251646635264
8 210 0.0287049323875
27 222 0.00436543802882
122 208 -0.00078929770489
32 200 0.520736480864
51 212 -0.0941954850609
146 192 -0.543240169084
95 231 0.0360638331157
99 224 -0.0921711159587
127 214 -0.0614138245987
40 210 0.00694064501489
64 200 -0.187309703631
17 198 -0.0162343100974
112 196 -0.00783823051601
41 200 0.117063963759
141 221 -0.0998073523468
144 207 -0.0769007534505
93 228 -0.0323302805267
168 197 -0.0952169050737
97 225 -0.100237708476
23 217 0.935248589125
70 220 0.081676078702
220 233 0.360237937292
150 196 -0.0996349685435
173 221 0.0148687893093
102 205 -0.0119962950001
174 206 -0.000259680253321
12 221 -0.103547241567
31 195 -0.0338383271665
126 199 -0.144541180331
55 217 -0.269125258531
79 215 0.065040098737
182 196 -0.0317697785112
21 202 -0.0907726426819
115 227 -0.106899794304
44 221 -0.118973781911
148 195 -0.100908446168
45 197 0.00549634013464
195 232 -0.200465783816
149 231 -0.0686078537955
172 200 -0.0938183851495
11 202 -0.146510946887
138 219 -0.104220184857
162 197 -0.00179399747769
20 219 -0.0944083620651
114 202 -0.00176216684408
43 202 -0.0970774150218
229 235 0.190151751347
67 192 -0.0352027282882
91 198 -0.00295922255322
147 216 -0.0239505264106
170 219 -0.112324946191
9 223 -0.112061527328
33 193 0.0331503132176
52 219 0.0105020891618
57 203 -0.00357513122902
76 225 -0.100575733493
80 228 -0.123249915208
136 214 0.0998832608303
160 204 -0.00685101991122
184 194 -0.107759459429
65 193 -0.0807341622435
137 204 -0.101950297179
89 203 -0.0942129012298
47 198 -0.106263828989
94 231 0.125801464049
166 208 -0.00227662974906
169 204 0.00390756695974
8 206 -0.0185519125597
32 212 -0.133897229382
71 205 -0.107781907781
95 219 -0.0902117334652
151 213 0.137120881772
175 211 -0.012344525524
13 212 -0.285645931057
127 202 0.00623500347317
37 222 -0.0272648424702
40 206 -0.106088636505
61 200 -0.00100215574365
64 212 -0.110774108044
140 217 0.278908843193
88 218 -0.0718151966495
108 229 -0.10291770743
164 215 -0.00185259102989
112 224 -0.0978780897823
22 221 -0.106873797108
188 205 0.00805167409489
46 215 0.054522494553
231 233 -0.696073868428
69 222 -0.0872110895974
141 193 -0.033999488544
93 200 0.0992911877239
3 224 -0.100127227315
117 194 -0.106004700032
35 211 -0.0446426408535
130 229 -0.098289808051
59 201 0.131768585379
150 224 -0.00228023381923
173 193 0.0654598013554
12 193 -0.0268341064262
106 228 -0.0499390197238
126 227 -0.0990913608631
36 207 -0.104153446696
139 206 -0.00033193930892
163 196 -0.0143969490812
1 225 -0.190471486473
187 218 -0.0999871924187
44 193 -0.209173057885
49 221 0.020434538009
68 207 0.00262821069836
92 213 -0.143169881957
148 231 0.126068429823
152 226 -0.00378105912397
116 211 -0.0621258498113
10 192 0.216963093239
176 216 -0.054386482708
120 226 -0.0960850426335
58 212 0.152967757985
81 221 -0.0958441078285
105 215 -0.0307347082076
161 197 -0.0309783302243
185 207 -0.0310849702578
39 220 0.290361160181
228 235 0.307612828532
90 212 0.174594535242
56 203 -0.0947239392
167 201 -0.671515615556
191 199 0.881914511399
53 226 -0.090658621846
57 231 0.0418407637899
80 192 0.0469075875671
104 198 0.0056484574391
184 222 -0.110949441203
38 201 0.0617906677676
62 195 -0.12127761023
86 197 0.0152732155846
15 203 -0.102170342552
109 220 -0.0773643700716
165 218 -0.0859712182205
189 196 -0.105227303246
47 218 0.0539373552794
142 202 -0.0901865877276
94 195 -0.0722650015893
118 197 -0.0993973183196
131 228 0.145215719089
60 198 0.000303816900024
84 204 0.000827072015259
107 229 0.00599724174116
108 201 -0.0604762627459
164 203 -0.133735219108
188 209 0.0542114157135
50 206 -0.000156379203298
141 229 -0.000807048492896
74 216 0.347585962568
3 220 0.0567397237968
177 209 -0.104116244947
35 207 -0.0739571065476
130 201 0.0236482325752
59 213 -0.0486939453775
82 206 -0.00608751748706
154 195 -0.0194391399984
83 219 -0.00246340112833
12 229 -0.0118905482413
106 216 -0.0434238454685
16 224 -0.0987585568226
36 227 -0.106978174697
186 208 -0.00880980694182
48 209 -0.0889670903813
159 231 0.106804371969
72 215 0.0802798145064
163 224 -0.0975704534696
1 205 -0.111249049715
96 205 -0.00290788621342
115 219 -0.00186797879237
187 230 -0.00451918857947
25 199 -0.309869406156
120 195 -0.0887741143371
128 200 0.0692181369849
10 228 -0.0984314412078
176 196 -0.11609284992
30 227 -0.004386778163
54 229 -0.000206236856156
129 210 -0.109965212743
7 209 -0.110885824395
157 228 -0.0190631573324
161 225 0.231269081651
39 192 -0.121858187945
134 220 0.0101338011648
63 206 -0.0991363315021
158 214 -0.0618514043573
87 212 0.041317937311
0 208 -0.00460259405666
111 210 -0.116421699756
24 214 0.0587799453255
190 199 0.265282873755
143 215 0.0136931430424
56 231 -0.049698006954
76 218 -0.0837585190298
5 210 0.018172619324
100 208 0.00827228555782
119 212 -0.269286895254
29 204 -0.000482329943055
124 206 -0.0944539846763
53 198 -0.0778161214869
85 213 -0.0270584458504
14 211 -0.131658648904
133 207 -0.109797778082
66 226 -0.10136714343
86 225 -0.140745483721
109 192 -0.0804512147739
146 221 -0.0741313094159
75 193 -0.0830424006595
4 195 -0.140055640336
99 199 0.134026326947
28 217 -0.0507085990242
178 202 -0.0191313860927
131 192 -0.239717408028
155 198 -0.110776701912
84 224 -0.0947802414607
88 227 -0.0971722248094
107 193 0.0398171267743
179 204 -0.0045994437213
17 217 0.814790019419
112 217 -0.069181462917
41 211 -0.106359675621
140 225 0.00879061882229
144 228 -0.141082804352
73 194 -0.0997602218819
2 222 -0.173502692108
97 196 0.0110478473893
26 200 0.632508138783
121 206 0.00483482625878
153 203 0.00568483351462
225 233 -0.134883791991
103 200 0.00730814454484
16 204 -0.00770878449419
135 205 -0.106303792803
159 219 -0.00988453074562
183 193 -0.0118601622032
116 228 -0.279734595878
120 223 0.00967629079891
49 229 0.0349775926248
128 212 0.220426940877
77 207 -0.10317097175
149 194 -0.101463313372
152 218 -0.129511887451
6 213 -0.0191424402848
172 229 -0.0957174749599
101 217 -0.195714055224
176 224 -0.118791288597
30 223 -0.00550900304153
125 195 -0.10532462386
54 193 0.0357630290935
78 203 -0.077671750605
157 200 -0.0803610194402
181 194 -0.00829675563233
110 216 -0.048134190499
20 192 0.691003995872
39 228 0.114040580262
43 225 -0.0403648406378
63 226 -0.102190943213
67 231 0.0365216541907
170 228 0.722784058526
190 227 -0.00866719831547
123 204 -0.0983901390555
52 192 -0.106058918089
218 232 0.0533264470177
171 210 -0.100879486305
29 208 -0.0986289391443
124 210 -0.00553690847219
53 218 -0.0967478965675
132 207 0.00651800010747
65 228 -0.250330569442
137 215 -0.0783666571047
156 213 -0.0807580747316
180 211 -0.017322665783
18 210 0.00152805101785
19 215 -0.0477510739966
113 208 -0.00362251033006
204 233 0.169453482005
42 220 0.0100195195977
66 198 -0.0971343536597
145 221 0.0111772597559
169 215 0.0799822494475
98 215 -0.0314388353689
8 211 -0.063491149761
27 209 -0.088574158128
122 209 -0.00192968299255
32 201 0.50928982024
51 215 0.0218928714694
146 193 0.119670084426
95 230 -0.107452951594
99 227 -0.0964443120038
127 209 -0.0963335583794
40 211 0.000835502935102
64 201 -0.0609629579379
17 197 0.0375906194685
112 197 -0.00233250797811
41 207 0.023755246155
141 220 -0.207049201143
144 192 -0.042604870351
93 227 -0.00285197906681
168 198 -0.00164113259812
97 224 0.000899617927548
23 216 -0.135028416222
70 221 -0.00895809322334
220 234 1.18149802677
150 197 -0.100233815165
173 220 0.287289009635
102 194 -0.102208232936
174 207 0.0184761529475
12 222 0.00174676937732
31 194 -0.100863108251
126 196 -0.0993336682541
36 212 -0.147620811858
55 216 -0.0732510517626
79 214 -0.0509334040601
182 197 -0.0538887307341
21 201 0.00112942029295
115 226 -0.10268491589
44 222 0.0210101454088
68 212 -0.380784349741
148 204 0.00230509290145
45 196 0.00318611819044
195 235 -0.057263408592
149 230 -0.00368397692084
172 201 -0.0217083171911
11 205 -0.00630523890288
125 231 -0.106235111532
138 216 -0.0219892581097
162 194 -0.106433521732
20 228 -0.722546047217
114 203 -0.00301888471678
43 205 -0.104178111534
229 234 -0.211336271738
67 195 0.0185844679814
91 217 0.214278501071
147 219 0.00120043161829
170 216 0.107404391581
9 222 -0.00652427331267
33 192 -0.0777516100808
57 202 -0.103024688555
76 226 0.0104523612584
80 229 -0.0740250373412
136 215 -0.0154550908259
160 205 -0.00296851273742
184 195 -0.0994503130939
65 192 0.283686834423
89 202 0.00893630636893
47 193 -0.125920862989
94 228 -0.126670488525
166 209 0.00715259497874
8 207 -0.213003996193
32 213 -0.035594072001
71 204 -0.113284387445
95 218 -0.0505052057286
151 212 0.263823331788
175 210 -0.00805288760056
13 211 -0.0169617037481
37 221 -0.113976515391
40 207 0.0305000598548
61 199 -0.048675184547
64 213 -0.0289115537599
140 218 -0.0862543008164
88 219 -0.0935059763486
108 230 -0.00529985381573
164 208 -0.110483558885
112 225 0.0198549339157
22 210 -0.0893593104303
188 206 -0.0922928619045
46 212 -0.123829057367
231 232 -0.923383134426
69 221 -0.102920931534
141 192 -0.113457025901
93 199 0.121295712778
3 227 -0.0970350654617
117 193 0.0465300733771
35 210 -0.0864105878677
130 226 -0.101371473869
59 200 0.229620896162
150 225 -0.0859741952672
173 192 -0.420065048592
12 194 -0.000862714965379
106 229 -0.0957859808204
126 224 -0.0978279541353
36 200 -0.179873384086
139 193 -0.012667970878
163 199 0.225070152988
1 224 -0.0118550038931
187 221 -0.00694013622271
44 194 -0.00232827007592
49 220 -0.0865880240636
68 200 -0.0730164848366
92 214 0.171001235781
148 224 -0.00112354005404
152 227 -0.10949824721
116 220 0.258779048988
10 193 -0.118691189184
176 217 -0.980865765752
34 219 -0.10757513736
58 213 0.0944910280672
81 220 -0.052513951456
105 214 -0.0192270878875
161 196 -0.127404897641
185 206 0.00514469996512
39 223 -0.105711374283
63 213 0.0569924628634
90 213 0.0960179659974
162 230 -0.108845524607
56 204 -0.10114549181
167 200 -0.626611955238
191 198 -0.0209810646891
29 231 -0.111586153639
53 225 -0.138866252845
57 230 -0.104971074015
80 193 0.0763045409134
104 199 -0.366748107868
180 228 -0.100208514443
184 223 -0.0433859319515
38 206 -0.0162280452249
62 192 0.0740427956556
86 218 0.0207394241704
15 202 0.00307662141424
109 219 -0.00405271436932
165 217 0.0776083476059
189 195 0.00360208939883
47 229 0.021088952476
142 203 -0.00358757567209
94 192 0.12308362901
118 218 0.0154466302586
131 231 -0.04538797156
60 199 0.172529612505
84 205 -0.10423552463
107 228 -0.0909867906531
108 202 0.00326987887276
188 210 -0.10421367954
50 207 -0.0889193275975
141 228 0.021401776519
74 217 -0.382428788045
3 223 -0.108904890211
177 208 -0.0114448247859
35 206 -0.117044678889
130 198 -0.00018463021367
59 212 -0.00101878094613
82 207 0.0162157707907
154 192 -0.269887566759
83 218 -0.095263763043
12 230 -0.000564364524064
106 217 -0.165020772302
16 225 -0.0362848886742
186 209 -0.0135603073797
48 210 -0.10165877969
159 230 -0.107616026732
72 216 -0.0512739806206
163 227 -0.111397907131
1 204 -0.103279083641
96 206 -0.0977174896838
115 218 0.0158281746613
25 198 -0.0847998574576
120 196 -0.00230557281269
128 201 0.111564439948
10 229 -0.0156746435604
176 197 -0.0571564936871
30 224 -0.109289571874
129 209 -0.106205120669
7 208 -0.10637092415
157 227 -0.116393060716
161 224 -0.104532193999
39 195 0.0140181492328
134 221 -0.105769645281
63 201 -0.195532873639
158 215 0.0343858686396
87 215 0.0108725901289
0 209 -0.0982731189735
111 221 -0.000557230738248
24 215 0.0418146056029
190 196 -0.0130271899873
143 214 0.177980890941
76 219 -0.0933006625597
5 209 -0.043264021967
100 209 -0.0941743871218
119 215 0.0351008716452
29 203 -0.0722360467805
124 207 0.0369101057
53 197 0.00579409055321
132 212 -0.0726510870448
85 212 -0.0276891748102
14 208 -0.0102861701567
133 206 -0.105287742156
66 227 -0.0999275744177
86 230 -0.00450074437715
189 231 -0.0199400562452
146 218 -0.0205256597582
75 192 -0.0985208886872
4 204 -0.104231564567
99 198 -0.0993665520075
28 218 -0.000361762746359
178 203 -0.13034707094
131 195 -0.00787847319153
155 217 -0.539915705597
84 225 -0.010688011885
88 228 -0.0497916297007
107 192 -0.0648242269715
179 207 -0.0988154171001
17 216 0.101498028478
112 218 0.00931821391084
41 210 0.0209907002926
140 226 -0.105872922855
144 229 0.0143578786589
73 193 0.116424093189
2 223 0.0627623438383
97 219 0.00365812789482
26 201 0.663006330223
121 205 -0.00184019343065
153 202 -0.00674399147156
221 235 0.159631496443
225 232 -0.526699730097
103 203 -0.0786266308055
16 205 -0.00319109075309
135 204 -0.00139716976603
159 218 -0.103895184641
183 192 -0.00928193728952
116 229 -0.112625932944
45 223 0.0188264858375
49 228 0.138859106894
120 217 0.0346773412148
128 213 0.134793333373
77 206 -0.10350990982
149 193 0.162133082617
152 219 -0.0132646113405
6 202 -0.110853649247
172 230 -0.00338968217423
101 216 0.125796183797
176 225 0.11007874468
30 220 -0.00361685480613
125 194 -0.0985460788403
54 198 0.00990632976097
78 200 -0.134712384076
157 199 -0.0534931381217
181 193 -0.108290890913
110 217 0.198648521055
20 193 -0.158773548296
39 231 -0.103977239631
43 224 0.00985606070968
67 230 -0.104999410271
170 229 -0.0108203349075
190 224 0.00628858230998
123 207 0.0477236766568
52 193 0.0628549212224
218 233 0.412742214697
171 213 -0.116845586575
124 211 -0.0878235206219
53 217 -0.321475158041
132 200 0.0500416461147
137 214 0.122748676062
156 214 0.0505344654504
180 220 -0.154528044232
18 211 -0.080911348628
19 214 0.0494678971266
113 215 0.0170783615853
204 234 0.0854683093785
42 221 0.00293287913862
66 199 0.245080332091
216 232 0.347209147191
145 220 -0.0327484604913
169 214 -0.222582276275
98 212 0.421719330045
8 212 -0.278382648857
27 208 -0.100228410348
122 222 -0.0079923230401
32 202 -0.0422086255141
51 214 -0.0636911117389
95 225 -0.0873818537943
99 226 -0.0923283465216
198 234 0.0128159319767
127 208 -0.100226371514
40 212 -0.264360828336
64 202 0.000811791389175
88 192 -0.166037272785
17 196 -0.108078348286
112 198 -0.00553422252671
41 206 -0.0144655215357
141 219 -0.00586164047617
144 193 0.00126053549163
93 226 -0.00104276571781
168 199 -0.0308891068983
97 231 0.0935098402105
23 219 -0.0885468649707
70 210 -0.101941721495
220 235 -1.68646889514
150 218 -0.0969321506689
173 219 -0.116533088766
102 195 -0.00819854857401
174 204 -0.10223529137
12 223 -0.0161183588677
31 205 -0.00821587319477
126 197 0.00739024360901
36 213 0.0294458420153
55 219 -0.100378820347
79 209 -0.114423618241
182 218 -0.0467130512579
21 200 0.143169372596
115 229 -0.103440505638
44 223 -0.137122376907
68 213 -0.209092970373
148 205 -0.10345002923
45 195 0.0167905573358
195 234 0.113315233371
149 229 -0.00154312806695
172 202 -0.0999102031156
11 204 -0.0149894837572
125 230 -0.00206815574327
138 217 -0.0845563091083
162 195 -0.00241421374802
20 229 -0.0859471619578
114 200 0.144460699223
24 224 0.000685265308521
43 204 -0.00539867076064
229 233 0.319488976242
67 194 -0.00298652275195
91 216 -0.125710663601
147 218 -0.0839361947046
170 217 -1.20118005933
9 221 -0.100167088056
33 199 0.0828516025864
57 201 0.0486393782238
76 227 -0.0911724946322
80 230 -0.106033945496
136 216 -0.200771008948
160 206 -0.00152117746852
184 196 -0.123514184591
65 199 0.0209083420298
89 201 -0.0785697426049
47 192 0.311523322168
94 229 0.00603029940048
166 214 -0.000299769990789
32 214 0.0674626855434
71 207 0.135748531166
95 197 0.0384342410676
151 215 0.116763749969
175 221 0.00185082239901
13 210 0.0218928082055
37 220 0.128396744686
61 198 -0.00505146735293
64 214 -0.0148437933569
140 219 -0.00222415443495
88 220 -0.0646680767206
108 231 0.0515068178093
164 209 0.0344671138123
112 226 -0.102885803746
22 211 0.0291493537748
188 207 -0.0689579539255
46 213 -0.108287100366
231 235 -1.36992878932
69 220 0.106045675827
93 198 -0.00551277975066
3 226 0.000526921639264
117 192 -0.136594979029
35 213 -0.174768490282
130 227 -0.102844644886
59 203 -0.107257711487
150 230 -0.107318848865
83 193 -0.0657474859558
12 195 -0.0978546734406
106 226 -0.0033234900608
126 225 -0.0948832810835
36 201 -0.26240134189
139 192 0.0297142960389
163 198 -0.0124642088718
1 231 -0.0296119718937
115 193 -0.00732043127396
187 220 0.181074757295
44 195 -0.0882852707145
49 211 -0.0927564415259
68 201 -0.0411342683744
92 215 0.0767848443087
148 225 0.0674969643395
152 228 0.378414502869
116 221 -0.00971975601329
10 206 -0.105926475014
176 218 -0.149581824977
34 216 0.109291795597
58 210 -0.00616419915404
81 211 -0.0136140317147
105 213 -0.0485717016069
161 219 -0.112952817068
185 205 0.00777343890526
39 222 -0.081714621642
63 212 0.0217565915314
90 210 -0.113681671868
162 231 0.0733131176863
56 205 -0.106839535182
167 203 -0.121765226612
191 193 -0.206427325586
29 230 -0.104570586755
33 227 -0.00658270058159
53 224 -0.00482732170858
57 229 -0.104852774116
80 194 0.000957580250733
104 200 0.0476938290631
180 229 -0.123796446656
184 224 -0.107202551565
38 207 -0.135410873098
62 193 -0.121626932993
86 219 -0.0948603796362
15 213 -0.0505745426974
109 218 -0.0944862913785
165 216 0.131062870955
189 194 -0.106292966468
47 228 -0.463262966051
51 225 -0.0206370052185
142 200 -0.253050269464
94 193 -0.152600780668
118 219 -0.00115167371911
131 230 -0.103719995169
60 192 -0.134558262002
84 206 -0.101792764404
107 231 -0.0559080588006
108 203 -0.106262345731
188 211 0.0211742781896
50 204 0.0127645883439
141 227 -0.106661470288
74 198 -0.0710391897438
3 222 -0.113743975056
177 215 0.14356772713
130 199 -0.0208710545248
59 215 0.0779260892331
82 204 -0.00211692190506
154 193 0.0522015805889
83 221 -0.00416210072628
12 231 -0.047320408749
106 198 -0.102696669498
16 226 -0.10336533316
186 222 -0.00642092560032
48 211 0.0201154479504
159 225 -0.0874600851396
72 217 -0.0162733013292
163 226 -0.104019574265
1 195 -0.0458604443889
96 207 0.0513728864614
115 221 -0.00531099255144
25 197 0.0096967678728
120 197 -0.102084061606
128 202 0.00300015304968
152 192 -0.261171001155
10 226 -0.00303293087328
176 198 -0.111293734329
30 225 0.0428847552985
120 231 0.18531762827
129 208 -0.10066369581
7 211 -0.038325021041
157 226 -0.110928403278
161 231 -0.0185023284269
110 194 -0.102838296072
39 194 -0.102125156016
134 210 -0.0047982035653
63 200 -0.140328492782
158 212 0.065543382227
87 214 -0.0834540541988
0 210 -0.0850019689873
111 220 -0.193920181436
24 216 -0.178235804412
190 197 -0.0972825509538
143 209 0.0209612210079
76 212 0.00605390829122
5 208 -0.105617382092
100 210 -0.103926876422
119 214 0.153887843735
191 229 -0.134164083476
29 202 -0.0182143543926
124 200 -0.107982081152
53 196 -0.082353774886
132 213 -0.00268320966592
85 211 -0.0866639660125
14 209 -0.0130916778973
42 230 -0.102373296388
133 205 -0.106137415827
66 224 0.00667659088629
86 231 0.0287727751869
189 230 -0.0092674372019
146 219 -0.106484033003
75 195 -0.0889455338223
4 205 -0.00779860458007
99 201 -0.292316808624
28 219 0.00331879729171
178 200 -0.209053381138
131 194 -0.00127450839551
60 228 0.143880793386
155 216 -0.0623193719726
84 226 -0.0999623235882
88 229 0.0165352757358
